function initCNNDigitDemo() {
    console.log("Initializing CNN Digit Recognition Demo...");

    // ---- Embedded pretrained weights: LeNet-5 (LeCun 1998), trained on the real, full
    // 60,000-image MNIST dataset plus one augmented pass (rotation/shift/zoom/shear) for
    // robustness to freehand drawing. Clean test accuracy: 98.8%.
    // conv1: [5,5,1,6]  conv2: [5,5,6,16]  dense1: [256,120]  dense2: [120,84]  dense3: [84,10]
    const WEIGHTS = { "conv1": { "kernel": [[[[-0.00796, -0.374049, -0.487955, 0.014019, 0.108937, -0.344928]], [[0.052639, -0.161997, -0.375828, -0.21206, 0.373724, -0.27239]], [[0.369665, 0.07247, -0.435136, -0.032095, -0.002771, 0.016006]], [[0.309198, 0.158998, -0.426412, 0.201484, -0.072757, 0.203537]], [[0.283038, 0.043929, -0.362012, 0.097134, 0.00382, -0.100711]]], [[[0.170523, -0.018839, -0.233033, 0.024578, 0.222701, -0.270012]], [[-0.082815, 0.179548, -0.176916, -0.351981, 0.316148, 0.177808]], [[0.282002, 0.2064, -0.027262, -0.360828, 0.184091, 0.243943]], [[0.05596, 0.291574, -0.082358, -0.363937, -0.062396, -0.062445]], [[-0.080684, -0.168918, 0.186615, -0.240804, 0.180232, -0.036678]]], [[[-0.266664, -0.026932, 0.091367, 0.196878, -0.091651, -0.051169]], [[-0.291141, 0.234536, 0.077901, 0.084344, 0.140499, 0.102152]], [[-0.092788, 0.038683, 0.220564, -0.296379, 0.250013, 0.072171]], [[0.08486, 0.183328, 0.323776, -0.155048, 0.035301, -0.082646]], [[-0.21599, -0.120717, 0.151109, 0.093485, 0.16151, -0.085049]]], [[[-0.322553, -0.028008, -0.024259, 0.306252, -0.097679, 0.230628]], [[-0.082474, 0.129693, 0.129952, 0.291845, 0.308331, -0.039481]], [[-0.069949, 0.317251, 0.081943, 0.276501, 0.189132, 0.034197]], [[0.15305, 0.088288, 0.233419, 0.049296, 0.252653, 0.164692]], [[-0.088665, -0.17045, 0.027187, -0.110554, -0.002989, -0.030748]]], [[[0.296208, 0.096238, 0.23524, 0.069034, 0.067786, 0.175803]], [[0.16262, 0.285297, 0.276656, 0.110437, 0.131112, 0.097617]], [[-0.198437, 0.201289, 0.101266, 0.267701, 0.094156, 0.050734]], [[0.140645, 0.117188, -0.114913, 0.15522, 0.144753, 0.033827]], [[-0.012583, -0.292561, 0.075533, 0.107092, 0.116693, 0.313613]]]], "bias": [-0.001524, -0.01339, 0.012396, 3.9e-05, -0.010574, -0.005204], "shape": [5, 5, 1, 6] }, "conv2": { "kernel": [[[[-0.028224, 0.054204, 0.067122, 0.111319, -0.064401, 0.095291, 0.119631, -0.002545, -0.140224, -0.174323, 0.086567, -0.083678, -0.010886, -0.030656, -0.067929, -0.058022], [0.01612, -0.009256, -0.075849, -0.119714, 0.004133, -0.025521, 0.075749, -0.095842, 0.065375, -0.06947, 0.130758, 0.005621, 0.050456, -0.089891, -0.100842, 0.009935], [0.112953, 0.144452, -0.230185, -0.220245, -0.263925, 0.087928, 0.229693, 0.140736, -0.115328, 0.121649, 0.219892, 0.069069, 0.026375, -0.057681, 0.036685, -0.022618], [-0.0285, 0.063836, 0.096465, -0.136112, -0.092389, 0.014523, 0.240322, -0.085303, 0.113155, 0.273236, 0.054656, -0.256413, -0.146949, 0.112218, -0.03139, 0.102449], [0.035696, 0.104262, -0.089638, -0.174414, -0.087212, -0.064819, 0.085748, -0.073765, -0.118183, -0.077332, -0.053693, -0.139476, -0.10948, -0.019222, 0.064663, -0.004656], [0.101543, 0.093028, -0.071402, -0.170561, -0.101395, 0.036528, 0.084822, 0.068293, 0.084546, 0.121111, 0.143619, 0.133084, -0.076864, 0.050695, -0.050934, -0.007123]], [[-0.033491, 0.077069, -0.041692, -0.021816, -0.123677, 0.034252, 0.061332, -0.061261, -0.217311, -0.098398, 0.124268, -0.069085, -0.094145, 0.083086, 0.112679, -0.075542], [-0.070916, 0.129776, -0.033009, -0.095979, -0.025629, 0.064844, 0.006588, 0.032029, -0.14681, -0.217826, 0.004929, 0.126349, -0.046665, -0.001025, 0.017682, -0.115762], [0.092824, -0.007044, -0.286586, -0.053125, -0.058744, 0.049365, 0.238908, 0.064254, -0.131045, -0.056963, 0.173213, 0.051734, -0.046336, 0.048757, 0.029164, -0.001624], [0.066439, 0.016193, -0.171714, -0.141312, 0.018939, 0.102388, 0.181515, 0.098157, -0.014137, -0.045202, 0.005754, -0.311176, -0.04554, -0.038129, 0.059397, 0.177509], [0.071391, 0.044143, -0.099931, -0.036576, -0.022556, 0.044001, 0.163578, -0.059132, -0.128416, -0.056029, -0.012612, -0.001198, -0.052861, 0.113128, 0.02459, -0.091337], [0.035949, 0.066588, -0.073293, -0.045687, -0.041527, 0.101921, -0.012908, 0.148925, -0.058947, -0.106695, -0.017404, 0.013968, -0.147955, 0.133773, -0.013916, -0.01043]], [[-0.170513, 0.176563, 0.014274, -0.072334, -0.042872, -0.10752, 0.002999, 0.016745, -0.069449, -0.061995, -0.023447, -0.02129, -0.090212, -0.021347, 0.076578, -0.094702], [0.017567, 0.042368, -0.063672, -0.114704, 0.065898, 0.028783, -0.070189, 0.062287, 0.110688, -0.007903, -0.06323, 0.185687, 0.05613, 0.133166, 0.025881, -0.045319], [0.068117, -0.019786, -0.204144, -0.069143, 0.047481, 0.077854, 0.088131, 0.093558, -0.052008, -0.061961, -0.037843, 0.042354, 0.056636, 0.049145, 0.059673, -0.174184], [0.093464, 0.013179, -0.175382, -0.041264, 0.248207, 0.081615, -0.016138, -0.031686, -0.172635, -0.304841, 0.000321, -0.352623, 0.067941, 0.130583, 0.157709, -0.09858], [0.070127, 0.120083, -0.033811, -0.139739, 0.057489, -0.060508, 0.089137, 0.073782, 0.012764, -0.078965, -0.096066, 0.082107, 0.026515, 0.046167, -0.081142, -0.03954], [0.117026, -0.00288, -0.064653, -0.081142, 0.011877, -0.106213, 0.012976, 0.150799, -0.043123, -0.121642, -0.021978, 0.187107, -0.033358, 0.110077, -0.065927, -0.067788]], [[-0.161338, 0.059287, -0.089762, -0.170843, -0.117472, -0.082955, -0.085113, 0.071469, -0.208953, -0.090771, 0.096017, -0.315464, -0.029024, 0.032979, -0.013543, -0.104098], [0.067272, 0.066854, -0.139248, 0.049532, 0.037536, -0.09438, -0.052847, 0.123947, 0.112915, 0.166118, 0.053268, 0.049451, -0.061114, 0.053552, -0.013369, -0.096058], [0.040233, -0.030025, -0.349318, -0.104119, 0.011922, -0.020057, -0.056192, 0.129408, -0.064452, 0.03241, -0.002493, -0.275836, 0.156057, 0.165369, 0.038772, -0.126698], [0.216891, -0.042675, -0.133534, -0.231883, 0.138328, 0.100452, 0.03121, 0.016837, -0.225661, -0.154439, 0.036214, -0.395284, 0.041695, 0.025823, 0.059233, -0.160674], [-0.112927, -0.060792, -0.022852, -0.083335, -0.007144, 0.055837, 0.008349, 0.057161, -0.012933, 0.07307, -0.026903, -0.135748, 0.00039, 0.095668, 0.153852, 0.023964], [0.022883, 0.093335, -0.080741, 0.031651, -0.124489, -0.053958, -0.101545, 0.100137, -0.002496, -0.025903, -0.041264, -0.082977, -0.028043, 0.055307, -0.103916, -0.196559]], [[-0.133149, 0.204619, -0.189493, -0.221385, -0.09936, -0.083033, -0.064007, -0.052162, -0.154313, -0.016722, -0.086641, -0.373332, 0.041257, 0.089258, 0.127252, -0.063302], [-0.121763, -0.019441, -0.028084, -0.053784, -0.208243, -0.043413, 0.098024, 0.182014, 0.047397, 0.138358, 0.080864, -0.122019, 0.110268, 0.123868, 0.026416, -0.040882], [0.121213, -0.136447, -0.176194, -0.099704, -0.180433, -0.16375, -0.157, 0.126635, 0.146924, 0.089976, 0.042607, -0.051757, 0.062728, 0.100431, -0.168224, -0.197153], [0.158462, 0.125749, -0.163309, -0.260351, -0.00391, 0.156844, -0.081614, 0.02477, -0.127194, -0.145127, 0.074146, -0.255342, 0.042955, 0.099448, -0.027703, -0.175599], [-0.179369, 0.061141, 0.016742, -0.019085, -0.087877, 0.124337, 0.076173, 0.106286, -0.02732, 0.021802, -0.02868, -0.201099, 0.040263, 0.10262, 0.142415, -0.024207], [0.124202, 0.049395, -0.044405, -0.063621, -0.005564, -0.018597, -0.05113, 0.051466, -0.067292, -0.075723, -0.048025, -0.234267, -0.049047, 0.074519, 0.08291, -0.060823]]], [[[-0.043892, 0.132781, -0.01847, 0.154711, 0.042806, 0.020492, 0.182936, -0.021765, 0.00539, -0.098301, -0.016384, -0.061192, -0.093777, 0.004583, 0.021399, 0.084773], [-0.022525, 0.105538, -0.198007, -0.104273, 0.001642, -0.065284, -0.101986, -0.099239, 0.010311, 0.07874, 0.02487, 0.044397, -0.06696, -0.154253, 0.059325, 0.109997], [-0.109131, 0.00648, -0.050576, 0.228466, -0.12333, -0.127982, 0.192959, 0.049661, 0.049887, 0.086875, 0.09001, 0.087242, 0.02418, -0.182067, 0.070829, 0.109425], [0.101519, -0.014637, -0.096672, 0.137572, 0.150434, 0.0652, -0.080708, 0.060996, 0.103641, 0.001758, 0.05969, -0.169698, -0.148401, -0.016504, 0.003641, 0.044531], [0.14185, 0.060151, -0.15116, -0.102164, -0.077067, -0.023039, 0.023336, 0.039324, 0.068114, -0.064555, 0.042047, 0.065176, 0.026902, 0.042714, -0.115358, 0.129842], [0.057656, 0.167464, -0.08206, 0.058287, -0.04766, 0.081847, -0.175121, 0.000552, 0.008557, 0.098402, 0.021951, 0.016075, -0.100517, -0.004129, -0.043806, 0.082268]], [[-0.057791, 0.103843, -0.04487, 0.066232, -0.029045, -0.068924, 0.18566, 0.004861, -0.164684, -0.286015, 0.088408, 0.107967, -0.043537, 0.024022, -0.065836, -0.087432], [0.089157, -0.079252, 0.07611, 0.028712, -0.05838, -0.13225, -0.135243, 0.118526, -0.05585, -0.161822, -0.043407, 0.188331, 0.094956, -0.012048, -0.071989, 0.105176], [-0.035957, -0.007098, -0.093022, -0.047247, -0.124265, -0.05994, -0.096187, 0.018365, 0.002419, 0.063059, 0.127939, -0.063887, -0.025132, 0.077572, 0.099722, -0.07453], [0.068063, 0.065624, -0.225853, 0.014102, -0.06396, 0.156139, -0.148011, -0.054073, -0.006108, -0.013549, -0.19364, -0.32408, -0.07248, 0.050437, 0.046279, -0.083633], [0.152496, 0.03538, -0.055186, -0.110802, 0.042807, -0.095889, -0.063974, 0.067259, -0.026033, -0.124993, -0.005217, -0.048036, -0.027179, 0.109171, -0.10536, -0.01087], [0.101674, -0.008013, -0.097093, -0.064092, -0.062955, -0.001468, -0.100824, 0.07379, -0.01379, -0.035502, 0.041512, 0.022725, 0.026345, -0.028827, -0.082583, 0.026375]], [[-0.006556, 0.176435, -0.115524, -0.014642, 0.165899, -0.149387, 0.11783, 0.172521, -0.007708, -0.043725, 0.12975, -0.211009, -0.082508, 0.09435, -0.032668, -0.142124], [0.00536, -0.008677, 0.101017, -0.008353, -0.014896, -0.166158, 0.015604, 0.034612, -0.027913, 0.012735, 0.028083, 0.016206, -0.087706, 0.008538, -0.190483, -0.038793], [0.08808, 0.029407, -0.176077, -0.199905, -0.14789, -0.113517, -0.078017, -0.034045, -0.090312, -0.070448, -0.006153, -0.222358, 0.143302, 0.108895, 0.017195, 0.012525], [0.132986, 0.014237, -0.184606, -0.099909, -0.061012, 0.169982, -0.206989, 0.072814, -0.355633, -0.195913, -0.054266, -0.171416, -0.100087, -0.003597, -0.060092, 0.030309], [0.055676, 0.075045, -0.003176, -0.15134, 0.060032, 0.03731, 0.036968, 0.052958, -0.021592, -0.01004, 0.065244, 0.090918, -0.049192, 0.123622, -0.011648, -0.040617], [0.134303, -0.058688, 0.103731, -0.035372, -0.043801, 0.050151, -0.192945, -0.046723, 0.042273, 0.092021, 0.030012, 0.018678, 5e-06, 0.123333, -0.123469, -0.087157]], [[-0.098349, 0.087544, -0.028855, -0.016194, -0.019764, -0.084353, 0.054302, 0.009446, 0.035885, 0.018723, 0.011736, -0.317152, 0.159315, 0.032233, -0.051303, -0.218244], [0.063334, 0.029918, 0.098053, -0.007916, 0.118442, -0.043918, -0.002119, 0.240294, 0.079858, 0.165113, 0.068104, -0.091829, -0.053245, 0.066437, 0.054332, -0.132706], [0.161719, -0.141165, 0.033048, -0.211167, -0.019826, -0.18612, -0.168328, 0.049813, -0.0356, 0.097478, -0.057801, -0.001104, 0.068967, 0.105851, -0.012573, -0.098886], [0.208232, 0.203863, -0.025776, 0.026609, 0.230218, 0.03765, -0.266731, -0.234387, -0.280238, -0.154182, -0.054996, -0.266456, -0.030086, -0.031231, -0.02629, -0.221765], [0.167538, 0.019496, -0.053866, -0.014726, -0.021224, 0.000183, 0.086284, -0.021178, 0.083533, 0.039973, -0.110178, -0.206214, 0.086625, 0.086612, 0.106879, -0.132787], [0.215812, -0.017555, 0.069708, -0.233367, -0.065011, -0.10588, -0.013168, 0.11682, -0.000321, 0.023346, -0.004039, -0.172793, -0.070076, 0.046568, -0.055337, -0.0996]], [[-0.004247, 0.046117, -0.125112, 0.162135, -0.122741, -0.052401, 0.00364, -0.095577, 0.009536, 0.042597, 0.0262, -0.255897, -0.001688, -0.033401, 0.130693, -0.232295], [0.046768, -0.025744, -0.001299, -0.106546, -0.018535, 0.106383, -0.003155, -0.027388, 0.104237, 0.111208, -0.060409, -0.109551, -0.037167, 0.037093, 0.106917, -0.05333], [0.09304, -0.07713, 0.020456, -0.206, 0.090133, -0.07126, -0.391727, -0.009026, -0.087901, 0.059917, -0.130691, 0.291511, -0.00054, 0.100748, -0.111455, -0.124166], [0.292473, 0.147395, -0.010028, -0.166428, 0.057047, -0.009218, -0.248175, -0.32357, -0.150453, -0.230554, 0.132099, -0.137475, 0.152998, -0.0419, -0.130574, -0.16844], [-0.034846, 0.056024, 0.010511, -0.095406, -0.168871, 0.092855, -0.027289, -0.103736, -0.040437, 0.047706, 0.013054, -0.061557, 0.093894, 0.061587, 0.119403, -0.051507], [0.159906, 0.073277, -0.036763, -0.188716, -0.035918, -0.063143, -0.169256, -0.034467, 0.07245, 0.114201, -0.024477, -0.011886, 0.045066, -0.088116, 0.064936, -0.143369]]], [[[-0.038094, -0.03017, -0.080855, -0.143258, -0.01518, -0.09371, -0.145663, 0.044596, 0.072471, -0.007134, 0.026348, 0.007796, -0.075113, 0.034902, 0.146387, -0.054214], [-0.076262, -0.080977, -0.028848, -0.042915, 0.057502, -0.008291, -0.183024, 0.042524, 0.061878, 0.082777, 0.092072, 0.155573, 0.010412, -0.124742, 0.069538, 0.035486], [-0.15672, -0.267875, 0.005535, 0.288325, -0.129861, -0.098714, 0.102492, 0.18036, 0.004902, 0.057655, -0.045774, -0.116733, -0.045854, -0.184123, 0.194295, -0.054946], [-0.225965, 0.053879, -0.224712, 0.192483, 0.19532, 0.02447, -0.219383, 0.080266, 0.094019, 0.037106, -0.081831, -0.125005, -0.099201, 0.222505, 0.175522, -0.271572], [0.018501, 0.029509, -0.113888, 0.028124, -0.033872, -0.011916, -0.087133, 0.039617, 0.03028, -0.090476, -0.053518, 0.011369, 0.083379, -0.155789, -0.109894, 0.153804], [-0.128082, 0.110071, -0.099154, 0.267901, 0.031282, -0.039852, -0.065105, 0.072642, 0.022209, 0.03564, 0.02238, 0.074451, 0.063801, -0.147876, 0.031011, 0.014151]], [[-0.010716, 0.031015, -0.059566, 0.016124, -0.017965, -0.080019, -0.101943, 0.037073, -0.069131, -0.104544, -0.034527, 0.157033, 0.006608, 0.112419, -0.175982, 0.027457], [0.023746, -0.02545, 0.024386, -0.102525, -0.114914, -0.132957, -0.017533, 0.137373, -0.207964, 0.042509, 0.053556, 0.105938, 0.010785, -0.08916, -0.057334, 0.193181], [0.046072, -0.009399, -0.075169, 0.146091, -0.168646, -0.081375, 0.03306, 0.111915, -0.046744, -0.132164, -0.125933, -0.146707, 0.036874, -0.013264, 0.038538, -0.056157], [-0.123451, 0.160146, -0.155668, 0.14649, -0.204473, 0.025282, -0.33461, 0.051199, 0.038796, 0.002191, -0.158743, -0.083154, -0.278419, 0.351425, 0.073904, -0.125808], [-0.049942, 0.08799, -0.039377, 0.02186, 0.02166, -0.05145, 0.034075, 0.00391, 0.028396, -0.010975, -0.041317, 0.035903, 0.110256, 0.017529, -0.129937, 0.059582], [-0.06926, 0.018283, -0.101656, 0.187869, -0.111139, 0.10765, -0.007593, 0.090555, -0.092806, -0.059653, -0.033448, 0.108751, 0.127041, -0.197704, -0.028785, -0.042443]], [[0.032098, -0.135641, -0.096488, -0.160641, 0.103736, -0.131092, -0.094876, 0.170701, 0.171107, 0.040865, -0.066896, -0.280433, 0.009224, 0.079839, -0.070867, -0.155719], [-0.031781, -0.038393, -0.022985, 0.069852, 0.162083, -0.038823, -0.021226, 0.208936, 0.058844, 0.135684, 0.102617, -0.088509, 0.068111, -0.090432, -0.045031, 0.122524], [-0.017454, -0.028172, 0.001454, 0.100252, -0.204256, -0.102838, 0.044254, 0.082564, -0.253901, 0.022779, -0.014959, -0.187782, -0.014578, 0.000639, -0.089461, 0.002242], [0.097923, 0.186448, -0.153037, 0.19501, -0.262329, 0.043054, -0.231533, -0.244402, -0.416229, -0.331817, -0.009165, 0.063669, -0.050849, 0.079657, -0.111063, 0.004337], [0.054045, -0.008051, 0.004157, -0.096348, 0.190428, 0.064264, 0.038841, 0.119351, -0.075796, -0.011737, 0.03352, -0.048792, 0.072788, 0.04351, -0.111804, -0.028509], [-0.125325, -0.009454, 0.099714, 0.112477, -0.045649, 0.101352, 0.013292, 0.011035, 0.008454, 0.131054, -0.090684, -0.102355, 0.130998, -0.125086, -0.008651, -0.05934]], [[0.08676, -0.030223, -0.097842, 0.133589, -0.083001, -0.014932, -0.131925, -0.217515, 0.050841, 0.069746, -0.091894, 0.019576, 0.077086, 0.118636, 0.126746, -0.196427], [0.120668, -0.081515, -0.062068, 0.038433, 0.109045, 0.002926, 0.12559, -0.008487, 0.153794, -0.006514, 0.097391, 0.043473, -0.056111, -0.128437, 0.187582, -0.143916], [0.029649, -0.123938, 0.079158, 0.002742, -0.153798, -0.109032, -0.053958, -0.056337, -0.329569, 0.012008, -0.055806, 0.137244, -0.029771, -0.014182, 0.006048, -0.096942], [0.219145, -0.025504, -0.115774, 0.235796, -0.10945, -0.003952, -0.235609, -0.572946, -0.261248, -0.454062, -0.07233, -0.013158, 0.07257, -0.16678, -0.138375, -0.102797], [0.130792, -0.041492, 0.01965, -0.112444, 0.102429, 0.164118, 0.031231, -0.081909, 0.13689, 0.060195, 0.062639, -0.039137, -0.064287, -0.127443, 0.144495, -0.022371], [-0.115234, -0.003574, 0.118591, 0.077818, -0.099816, -0.090881, -0.004636, -0.042241, -0.052571, 0.139386, -0.071714, -0.05967, -0.045947, -0.274284, -0.071948, -0.160817]], [[0.035103, 0.148233, -0.107776, -0.027937, -0.080664, -0.032948, 0.039491, -0.314739, 0.022989, -0.059515, 0.140403, 0.128797, 0.051087, 0.013512, 0.149198, 0.027562], [0.026855, 0.065761, -0.063564, -0.044348, -0.180919, 0.014132, 0.03233, -0.216573, -0.049562, -0.054668, -0.01474, 0.154685, -0.032588, -0.146449, 0.151526, -0.004237], [0.167195, 0.037615, -0.047944, 0.011319, 0.014162, 0.009177, -0.119313, -0.099315, -0.287272, -0.065645, -0.039971, 0.227852, 0.111721, -0.065906, -0.088728, -0.047537], [0.24405, 0.112561, -0.092674, 0.192429, -0.030833, -0.105752, 0.02794, -0.330799, 0.115449, -0.127496, -0.051056, 0.040914, 0.160163, -0.155853, -0.149566, -0.096597], [0.038995, 0.02057, 0.016991, -0.263598, -0.155707, 0.143626, -0.044815, -0.090488, 0.069978, 0.019503, 0.138719, 0.118566, -0.001355, -0.110108, 0.028078, -0.081855], [0.018154, 0.022773, 0.025494, -0.010941, -0.037693, -0.017583, -0.191419, -0.076712, -0.088842, -0.064809, -0.04381, 0.051918, -0.018801, -0.155751, 0.027196, -0.047515]]], [[[-0.070082, 0.094815, -0.176989, 0.133507, -0.073141, -0.058349, 0.035084, 0.011944, 0.041044, -0.105174, -0.052788, -0.006104, -0.04168, 0.018216, -0.111265, -0.036838], [-0.051637, -0.090673, 0.112482, 0.054384, 0.036816, 0.01139, 0.09894, 0.007793, 0.065811, -0.036379, 0.078577, 0.120984, 0.06465, -0.118979, -0.06287, 0.148324], [-0.243446, -0.159281, 0.021799, 0.024059, 0.157806, 0.055805, 0.056885, 0.205574, 0.173898, 0.088551, -0.277018, -0.053021, -0.118353, 0.073298, 0.179143, -0.154259], [-0.006674, 0.156624, 0.025197, 0.002865, 0.062152, 0.041902, -0.240133, -0.070812, 0.073862, -0.097863, -0.009568, -0.048864, -0.13743, 0.116108, 0.007944, -0.331427], [-0.023585, 0.118976, 0.066036, 0.119241, -0.088489, 0.045268, -0.071707, 0.098967, -0.045655, -0.011793, 0.106187, 0.033122, -0.024999, -0.212611, -0.177978, 0.090104], [-0.106065, -0.047504, 0.014123, 0.122874, 0.056566, -0.031819, 0.11402, 0.007049, 0.069687, -0.033535, -0.093236, 0.104831, 0.139176, -0.080528, -0.005527, 0.022208]], [[0.087975, -0.039494, 0.081762, 0.030639, 0.000233, -0.098241, 0.0559, 0.134007, -0.171472, 0.058099, -0.078698, 0.104876, 0.018747, -0.001856, -0.178314, 0.050969], [-0.119407, -0.01203, 0.154931, 0.025624, 0.113606, 0.093646, 0.112216, 0.074625, -0.17714, 0.097002, 0.107132, -0.019218, 0.066525, -0.191051, -0.148088, 0.18922], [-0.218393, 0.013218, 0.195737, -0.003212, -0.169723, 0.208883, -0.074907, 0.022398, -0.0036, -0.019807, -0.068072, -0.189197, -0.296807, 0.203504, 0.19515, -0.161361], [-0.154265, 0.101346, 0.049439, 0.12872, -0.157237, 0.002259, -0.439794, -0.23366, -0.045724, -0.219611, 0.017733, -0.077636, 0.016927, 0.166975, 0.069775, -0.132693], [-0.099926, 0.034916, 0.077981, -0.027112, 0.017238, 0.201594, 0.026047, 0.070835, -0.091678, -0.025839, -0.022494, 0.035598, 0.14928, -0.19491, -0.021512, 0.064993], [-0.236619, 0.061196, 0.092758, 0.076019, 0.047284, -0.021697, 0.21678, -0.132706, -0.075876, -0.021669, -0.020342, 0.168866, 0.046309, -0.135211, -0.084565, 0.23579]], [[0.0661, 0.108196, 0.015814, 0.09137, 0.186005, -0.112922, 0.09798, 0.01546, 0.144132, 0.131131, -0.091466, -0.153679, -0.066659, 0.09485, 0.014829, -0.248015], [-0.120435, 0.020369, 0.081271, 0.047285, 0.153166, 0.193715, 0.167768, 0.094274, 0.010937, 0.141026, 0.068386, 0.005087, -0.043085, -0.254015, 0.08305, 0.207118], [-0.276132, 0.070688, -0.013333, 0.093509, -0.08736, 0.295583, -0.026165, -0.086427, -0.277995, -0.133185, -0.153861, -0.065781, -0.182463, 0.329606, -0.022262, 0.033734], [-0.172975, 0.047834, -0.035491, 0.232697, -0.467343, -0.209264, -0.232109, -0.410449, -0.294796, -0.332883, 0.018938, 0.010965, 0.150213, 0.16627, 0.008782, -0.018549], [0.029971, -0.009432, 0.004675, 0.096842, 0.073829, 0.13997, 0.054241, -0.104655, -0.055716, 0.10786, 0.100491, 0.083547, 0.093913, -0.057419, 0.016286, 0.145811], [-0.252577, -0.007814, 0.052264, -0.037621, 0.11138, 0.086618, 0.092364, -0.080572, 0.097, 0.16613, 0.054826, 0.054822, 0.049143, -0.009937, -0.004431, -0.024538]], [[0.084935, 0.039594, -0.094062, 0.028631, -0.078321, -0.124132, -0.020228, -0.432803, 0.234404, -0.002883, -0.042364, 0.05453, 0.037569, -0.047106, 0.08918, -0.275719], [-0.146535, 0.003661, 0.1078, -0.07756, -0.026168, 0.215684, 0.190225, -0.261179, 0.072092, 0.004256, 0.094486, 0.04933, 0.04175, -0.180568, 0.156332, -0.11486], [0.022908, 0.095635, -0.018767, 0.134744, -0.190821, 0.068844, -0.245936, -0.052462, -0.416304, -0.108957, -0.077683, 0.20957, -0.083507, 0.170851, -0.041535, 0.065202], [0.008567, 0.010427, -0.131617, 0.301387, -0.18064, -0.342382, -0.072205, -0.487969, -0.14097, -0.200342, -0.034578, -0.012188, 0.064841, 0.153233, -0.080246, -0.052084], [-0.064585, -0.070145, 0.036106, 0.024995, 0.06105, 0.081231, 0.170341, -0.083188, 0.196259, 0.094985, 0.099999, -0.043825, 0.058306, -0.167663, 0.065791, -0.092156], [-0.18351, -0.06942, 0.167635, 0.04668, 0.079562, 0.097509, -0.061772, -0.074682, 0.135441, 0.035492, 0.007873, 0.087458, 0.043831, -0.042089, 0.127508, -0.034479]], [[0.258063, -0.063824, 0.072328, -0.064425, -0.13421, 0.060819, -0.037353, -0.13298, 0.062525, -0.110928, 0.031708, 0.09966, 0.030282, -0.023242, 0.124577, 0.076215], [-0.077145, -0.012208, 0.119435, -0.033057, -0.046911, 0.079837, -0.135307, 0.156128, -0.002931, -0.065538, 0.082046, 0.067681, 0.035664, 0.005333, 0.15482, -0.019917], [-0.09951, 0.123791, -0.048308, 0.124384, -0.066397, -0.049047, -0.264515, 0.177211, -0.223453, -0.005576, -0.083127, 0.138412, 0.123894, -0.081292, -0.15618, -0.10558], [-0.068968, -0.023947, -0.127655, 0.318615, 0.02989, -0.249916, -0.06744, -0.161156, 0.1999, 0.093967, -0.095498, -0.201268, 0.221242, -0.044715, -0.124086, -0.146672], [0.029253, -0.004721, 0.15623, -0.087178, -0.091113, 0.065641, -0.014598, 0.060554, 0.203478, -0.147228, 0.12715, 0.039663, -0.018263, -0.212813, -0.046506, 0.024424], [-0.183899, -0.044114, 0.13177, 0.150351, -0.107602, 0.036497, -0.287325, 0.035114, -0.00814, -0.182162, 0.061987, 0.12194, 0.121034, -0.047164, 0.130843, -0.018187]]], [[[-0.08915, 0.078024, -0.129146, 0.031953, 0.030526, -0.020299, 0.044536, 0.10131, 0.017149, -0.062225, -0.021386, 0.037845, -0.000351, -0.0497, -1.7e-05, 0.126426], [0.100664, -0.039524, 0.133116, 0.007497, 0.12758, 0.06035, 0.087379, -0.107609, 0.071263, 0.165791, -0.077681, 0.035481, 0.080616, -0.083177, -0.048713, 0.116017], [0.000881, -0.118956, 0.184126, 0.005099, 0.192983, 0.278287, -0.16504, 0.210309, 0.04587, 0.201874, -0.312261, -0.091613, -0.309827, 0.260346, 0.070402, -0.19633], [-0.019557, 0.033264, 0.106085, -0.143495, 0.076246, 0.053587, -0.210957, -0.206698, -0.106763, -0.193059, -0.030343, -0.02169, 0.023777, 0.054719, -0.07882, -0.129824], [-0.104504, -0.037702, 0.026392, 0.072535, 0.101118, 0.103471, -0.046224, -0.071089, -0.063956, -0.027613, 0.074695, -0.035587, 0.165678, -0.098817, -0.169978, 0.1554], [-0.068998, 0.061045, 0.141639, -0.06708, -0.050921, 0.027923, 0.149345, -0.138747, 0.02957, 0.058567, 0.010639, 0.13743, 0.196659, 0.05247, 0.024732, 0.117653]], [[-0.052937, -0.039688, -0.000519, 0.081924, 0.154392, -0.037387, 0.101412, -0.111574, -0.070433, 0.048771, 0.079918, 0.054206, 0.058262, -0.194013, -0.085232, 0.187516], [-0.142704, -0.113411, 0.251392, 0.042412, 0.058747, 0.113115, 0.059836, -0.054098, -0.003791, 0.23425, 0.076101, 0.108471, -0.06207, -0.029846, 0.066064, 0.19754], [-0.010807, -0.083431, 0.064851, -0.020281, 0.031429, 0.249805, -0.335197, -0.007604, -0.134124, -0.142954, -0.180396, 0.078126, -0.25019, 0.236901, 0.033018, -0.186537], [-0.050428, 0.214026, -0.035009, -0.205828, -0.129098, -0.255316, -0.42594, -0.160418, 0.056568, -0.245525, -0.054502, 0.000358, 0.245556, 0.079868, -0.041572, -0.242554], [-0.146174, 0.04823, 0.016181, 0.055374, -0.008616, 0.069785, 0.148735, -0.11902, -0.101722, 0.097748, 0.117317, -0.03607, 0.173277, -0.138033, -0.039002, 0.16971], [-0.081787, -0.030818, 0.182573, -0.070135, 0.042899, -0.033382, 0.045698, -0.166644, 0.104103, 0.116454, 0.047846, 0.028017, 0.06038, 0.034004, -0.048404, 0.199636]], [[0.055629, 0.059069, -0.055693, 0.078552, 0.171171, 0.053687, 0.119121, -0.119425, -0.009131, 0.075587, -0.051456, 0.057687, 0.101236, -0.099603, 0.126471, -0.084592], [-0.157596, -0.075935, 0.180116, -0.122947, 0.128844, -0.046963, 0.08864, 0.013027, 0.129448, 0.14586, 0.034101, 0.0242, -0.03413, 0.096348, 0.071153, 0.183018], [-0.120967, 0.108303, 0.047935, -0.016285, -0.14946, 0.002646, -0.399842, 0.055872, -0.199795, -0.291254, -0.081072, 0.195029, -0.135648, 0.274508, 0.101157, -0.079405], [-0.048434, 0.088559, -0.059922, 0.013508, -0.232136, -0.325232, -0.297062, -0.195813, -0.081197, -0.222424, -0.004594, -0.021881, 0.250562, 0.108511, 0.027409, 0.040681], [-0.196037, 0.010808, 0.1424, -0.012309, 0.060114, -0.030176, 0.109015, -0.079744, -0.052726, 0.14673, 0.00923, 0.054775, 0.163168, -0.04056, 0.132785, 0.137852], [-0.076124, -0.106727, 0.153548, -0.005521, 0.201694, -0.049455, -0.067726, -0.186008, -0.016492, 0.206675, -0.022834, -0.077923, 0.144803, 0.080936, 0.019533, -0.054893]], [[0.071322, -0.07713, 0.005932, 0.120881, -0.102155, -0.052018, -0.030062, -0.15124, 0.155988, -0.042515, -0.064329, 0.138731, 0.078657, -0.042649, 0.032801, -0.181626], [-0.049929, 0.050947, 0.090543, -0.034749, 0.079409, -0.026528, 0.041284, -0.078759, 0.10366, 0.065027, -0.016074, 0.12653, 0.004535, 0.152897, 0.03776, 0.100898], [-0.050988, 0.087908, -0.090928, 0.060113, -0.03087, -0.08305, -0.251495, -0.127284, -0.529623, -0.172101, -0.050761, 0.075951, 0.03263, 0.222558, 0.109013, -0.059263], [-0.124012, 0.022125, -0.103903, 0.007591, -0.07855, -0.298279, -0.059604, -0.238041, -0.105568, -0.033922, 0.099864, -0.180647, 0.100809, 0.143107, -0.104352, -0.042484], [-0.054096, -0.131411, 0.10713, 0.038758, 0.132238, -0.045712, 0.113159, -0.088613, 0.16883, 0.093287, -0.046538, 0.051768, 0.059565, -0.118637, 0.027028, -0.055116], [-0.130516, -0.022867, 0.037814, -0.080862, -0.001174, -0.098973, -0.15256, -0.187078, 0.069998, 0.011751, -0.027718, -0.007999, -0.012457, 0.078192, 0.014571, -0.05047]], [[-0.057928, 0.030253, 0.164845, -0.027756, -0.053346, -0.151416, -0.053176, 0.177189, 0.058687, 0.011412, -0.037626, 0.024113, -0.031157, -0.09576, -0.028878, 0.01757], [-0.152256, 0.014295, 0.001697, -0.114864, -0.041751, -0.226748, -0.026507, 0.181554, -0.035285, -0.082596, 0.002998, 0.016437, -0.02379, 0.070016, 0.122112, 0.18108], [-0.048296, -0.017505, 0.102597, 0.19963, -0.134956, -0.233375, -0.259346, -0.110783, -0.441372, -0.095562, -0.0139, -0.082143, 0.029426, 0.13862, -0.226509, -0.053941], [0.103746, 0.026262, 0.057246, 0.206987, -0.009666, -0.162317, -0.026851, -0.242812, 0.240745, 0.098965, 0.014893, -0.163767, 0.23227, 0.07294, -0.01766, -0.137731], [-0.203659, -0.161744, 0.08908, 0.099065, -0.084248, -0.185657, -0.079375, 0.055577, 0.187782, -0.080099, 0.100003, -0.032708, 0.039671, 0.069784, -0.004595, 0.0238], [-0.134623, -0.000672, -0.016424, -0.053171, 0.01772, -0.321628, -0.212312, -0.064023, -0.199552, -0.10946, -0.099876, 0.013713, 0.045783, 0.004411, 0.002828, 0.039481]]]], "bias": [-0.033786, -0.058564, 0.016195, 0.081799, 0.088571, -0.209291, -0.068157, 0.076751, 0.077265, -0.027381, -0.159948, -0.034609, -0.045733, -0.064302, -0.17899, 0.058453], "shape": [5, 5, 6, 16] }, "dense1": { "kernel": [[0.091976, 0.081108, 0.171174, -0.087026, -0.068953, 0.181319, 0.115042, -0.117833, -0.14255, 0.015922, 0.072923, -0.040705, -0.082742, -0.018576, -0.032687, -0.085591, 0.153955, -0.03785, -0.036128, -0.034448, 0.088983, -0.122397, -0.017307, -0.125117, -0.053641, 0.125956, 0.029811, 0.015853, -0.012433, 0.099688, 0.125116, -0.031577, 0.136333, 0.03125, 0.05229, -0.082587, -0.035133, 0.064837, 0.14155, 0.092272, 0.216245, -0.052619, -0.162115, 0.155062, 0.025619, 0.034976, 0.068796, 0.089319, 0.05157, 0.019375, -0.001375, -0.03805, -0.04391, 0.116732, 0.034259, -0.012525, 0.111151, -0.202519, 0.036241, 0.023372, -0.163261, -0.000819, 0.064977, 0.056604, 0.094821, -0.029503, 0.068026, 0.016384, 0.151261, -0.175799, -0.195945, 0.061766, -0.076849, -0.15511, -0.105865, 0.043199, -0.14178, -0.088937, 0.107796, 0.053668, 0.204957, 0.060066, -0.175495, -0.073268, 0.119694, 0.161069, 0.066623, 0.024926, -0.05779, 0.056513, 0.138567, -0.042685, -0.304594, -0.031198, -0.089283, -0.10415, -0.109921, -0.194438, 0.032184, -0.052887, -0.069463, -0.077376, -0.085115, 0.022861, -0.089245, 0.05562, -0.04377, 0.136026, -0.159254, -0.264229, -0.178352, -0.089986, 0.086415, 0.097749, 0.076789, 0.019345, 0.076945, 0.004856, -0.063828, -0.210501], [0.02881, -0.115755, -0.108281, 0.023544, -0.102709, 0.107416, -0.069546, 0.083633, -0.1339, -0.105704, 0.074663, 0.171336, -0.050655, 0.15015, -0.037633, -0.219818, -0.042194, 0.003246, -0.133556, -0.021209, -0.079655, -0.280545, 0.084305, -0.200722, -0.0671, -0.128211, -0.10051, 0.113881, 0.084999, -0.083635, -0.087442, 0.009981, 0.133411, -0.022225, -0.117421, 0.264548, 0.008801, -0.044063, -0.029424, 0.057487, 0.188041, 0.094077, 0.106968, 0.081672, -0.142025, -0.27171, 0.056635, -0.150178, 0.011241, -0.146784, -0.136764, -0.175157, -0.094059, -0.131206, 0.080531, -0.058305, 0.135252, 0.154712, -0.032343, 0.007257, -0.041295, -0.086336, -0.00789, -0.050389, 0.037395, -0.126972, 0.039395, -0.067317, -0.015559, 0.194807, 0.100279, 0.065496, 0.067522, -0.111019, -0.11904, 0.088733, -0.047291, 0.020938, 0.008416, 0.102761, 0.184514, -0.126755, -0.004133, 0.037011, -0.110492, -0.053348, -0.103706, -0.018, 0.153761, -0.082214, 0.102623, 0.062759, -0.328827, 0.026831, -0.054231, -0.07522, 0.083384, -0.221217, 0.07949, 0.17194, -0.018898, -0.00905, 0.026329, 0.027504, -0.018846, 0.020852, -0.084327, 0.004883, -0.103593, -0.036028, 0.060858, 0.020555, 0.015, -0.059258, 0.218867, -0.118662, -0.06881, -0.000723, 0.041607, 0.108911], [-0.047449, 0.015893, -0.031688, -0.122278, 0.028709, 0.034221, 0.050381, 0.042656, 0.078355, 0.1011, 0.111831, -0.003044, -0.040298, -0.009264, 0.093968, -0.016982, 0.055003, 0.111952, 0.02152, 0.048996, 0.119026, -0.051284, -0.235285, -0.130724, 0.042778, 0.153047, 0.022446, 0.165616, -0.022728, -0.130255, -0.053284, 0.150458, -0.12509, -0.070099, -0.091446, -0.064264, 0.041394, -0.062726, -0.087472, -0.055911, -0.066661, -0.086581, -0.010105, 0.091701, 0.202603, -0.144535, -0.00831, -0.160501, -0.031249, -0.090723, 0.030953, 0.001134, -0.003222, 0.128832, -0.020187, 0.111998, 0.018808, -0.064533, -0.133125, -0.040534, 0.085841, 0.179937, -0.090548, 0.006519, 0.072651, 0.032824, 0.019652, 0.079836, -0.03247, -0.008012, -0.119737, -0.136498, 0.057318, 0.105281, 0.098749, -0.044671, 0.095477, -0.065845, -0.021828, -0.077251, -0.091194, 0.115853, 0.003389, -0.015257, -0.033999, -0.054355, 0.163297, -0.016472, -0.064901, -0.042039, -0.09786, -0.031091, -0.148997, 0.031246, 0.104994, 0.155915, 0.007674, 0.033106, 0.071427, 0.10544, -0.023878, 0.060273, 0.104103, 0.013363, -0.009384, 0.066281, 0.094118, 0.006577, 0.038886, 0.00157, 0.097201, 0.055782, 0.099683, 0.012071, -0.112857, 0.095455, 0.071281, -0.015443, -0.009384, 0.042355], [-0.082055, -0.009683, -0.176715, 0.063963, 0.045921, -0.028527, -0.044777, -0.122922, 0.043577, 0.002317, -0.058139, -0.06107, 0.022647, -0.25962, -0.057187, -0.230817, 0.165846, 0.106949, 0.016577, -0.06141, 0.154147, -0.002595, -0.332281, 0.044572, 0.043485, 0.211082, -0.01017, 0.139001, -0.080353, -0.173424, 0.042594, 0.02259, 0.165236, -0.08288, -0.089137, 0.092134, -0.070147, -0.074791, 0.131884, 0.031659, 0.032073, -0.057818, -0.033959, 0.150789, 0.152768, -0.213228, 0.028607, -0.152802, 0.001308, 0.083501, 0.054754, -0.08924, -0.109387, -0.02914, -0.086345, 0.155907, 0.164087, -0.106083, -0.070997, -0.076512, -0.120672, 0.017849, -0.027734, 0.107867, -0.077242, -0.097934, -0.084263, 0.017508, 0.086788, 0.034595, -0.145767, 0.098345, 0.069492, 0.039902, -0.187818, -0.158283, 0.059874, 0.01917, 0.057229, -0.103705, 0.057184, -0.03174, -0.00038, -0.147264, 0.039976, -0.047084, 0.016301, -0.107723, 0.055601, 0.073033, 0.121914, 0.022755, 0.019295, 0.110509, -0.127143, -0.029467, -0.091889, 0.051996, 0.060308, 0.076529, -0.01558, -0.070262, 0.084984, 0.087165, -0.101252, 0.026307, -0.04716, 0.147182, -0.038972, -0.096371, -0.186189, 0.067712, -0.127353, 0.043243, 0.001632, 0.147236, 0.026258, 0.133585, 0.117824, 0.019294], [-0.199933, 0.058097, 0.07259, -0.198614, -0.141324, 0.157433, -0.056928, 0.012956, -0.039979, 0.054627, -0.107533, -0.156569, 0.115927, 0.006487, -0.267939, 0.111096, -0.215099, -0.039295, 0.062448, -0.062818, -0.221231, 0.210781, -0.170142, -0.089738, -0.037987, -0.178695, -0.064738, 0.229433, -0.064882, 0.372238, -0.02132, 0.136599, -0.152334, 0.200073, -0.068687, -0.069457, -0.076721, -0.245665, 0.114561, -0.118643, -0.129283, 0.071229, 0.048601, -0.209129, -0.2139, 0.203863, 0.264298, -0.040371, 0.184763, 0.139034, -0.048104, -0.006882, 0.130723, 0.03088, -0.021296, 0.158799, 0.027783, -0.002187, -0.112583, 0.084919, 0.095192, -0.237072, 0.027129, -0.112993, 0.092878, 0.139346, 0.138023, 0.02915, -0.084677, 0.103311, 0.099633, -0.102731, 0.068022, -0.217913, 0.105736, 0.248906, -0.176492, 0.002501, -0.123084, -0.026398, 0.230947, -0.079973, 0.3874, -0.122749, 0.35273, 0.181465, -0.006982, -0.059862, -0.108914, -0.138172, -0.081093, -0.00407, -0.164172, -0.188126, -0.171681, 0.317605, 0.017045, 0.043671, -0.001896, 0.123471, 0.003055, -0.162594, -0.069551, -0.030366, -0.145638, -0.116056, 0.010513, 0.335934, -0.008747, -0.193033, 0.084852, 0.118992, -0.085649, -0.06381, -0.143304, -0.030784, 0.094172, -0.19942, 0.115083, 0.144459], [-0.252292, 0.105322, 0.014931, 0.032675, -0.104373, 0.004855, -0.037697, -0.049917, 0.077139, 0.090563, -0.011304, 0.053392, -0.086777, -0.120408, -0.005776, 0.087243, 0.061525, -0.088582, -0.0935, -0.082707, 0.130748, -0.123671, -0.050137, 0.097108, -0.03882, -0.011463, 0.045689, 0.010562, -0.112412, 0.111591, -0.154577, 0.149523, 0.021959, 0.096649, -0.335401, 0.088521, 0.096112, -0.135749, -0.012513, -0.004041, 0.028714, 0.100993, -0.115514, -0.031002, 0.039989, -0.010143, 0.126129, -0.14606, 0.036211, 0.052035, -0.099958, -0.141186, -0.091873, 0.027783, -0.023221, -0.026026, -0.154314, -0.058838, 0.023344, 0.016235, -0.119543, -0.00094, -0.017797, -0.004296, 0.032033, -0.016814, -0.122401, -0.020203, 0.004984, -0.105951, -0.026121, -0.119081, 0.037214, 0.046419, -0.067775, 0.189343, -0.244102, 0.157457, -0.014728, -0.13076, 0.071764, 0.015627, 0.167474, 0.003805, 0.136958, -0.071366, 0.038393, 0.050026, 0.053102, -0.117943, -0.060279, 0.059788, -0.121532, 0.003136, 0.015456, -0.054479, 0.124453, 0.191232, -0.099664, 0.096806, -0.044671, 0.062916, -0.167304, -0.153609, 0.049255, -0.069786, 0.210437, -0.143612, 0.062302, -0.023667, 0.165621, 0.028957, 0.015849, 0.046771, 0.038724, -0.027202, -0.022792, 0.161562, 0.161805, 0.171665], [-0.089133, 0.200147, -0.20247, 0.038335, -0.084081, -0.281791, 0.096152, -0.084745, 0.158341, -0.112855, -0.036507, -0.182818, 0.065846, -0.047793, -0.007217, -0.153531, 0.088856, 0.252554, -0.136321, -0.056126, 0.006959, -0.237432, 0.00473, -0.164368, 0.047875, -0.022642, -0.099461, -0.014412, -0.150068, -0.130692, 0.062382, 0.094687, -0.090683, 0.120632, -0.041467, 0.100981, 0.050851, -0.414558, -0.046886, -0.057189, -0.203464, -0.020153, -0.145872, 0.010078, -0.288935, -0.172402, -0.114131, -0.070219, -0.137287, 0.174255, -0.045164, -0.022755, 0.145712, 0.238597, 0.09084, 0.100462, 0.059514, -0.083892, -0.073764, -0.1863, 0.021438, -0.081137, -0.267324, -0.003829, -0.030135, -0.044135, -0.090307, 0.166166, 0.169096, -0.070855, 0.185487, 0.102207, -0.114103, 0.167426, -0.07727, -0.272714, -0.127382, 0.122404, 0.079773, -0.101408, 0.370337, 0.080944, -0.073977, 0.122759, 0.055136, 0.045028, -0.055428, -0.009761, -0.211983, 0.096789, 0.206495, 0.139868, -0.198409, -0.119053, 0.049665, 0.04515, 0.054385, -0.339114, 0.066868, 0.015822, -0.058906, -0.007312, 0.05586, -0.042271, 0.025289, 0.082116, -0.144211, -0.106592, -0.230862, -0.214796, 0.1524, 0.206178, 0.02519, 0.055185, -0.123473, -0.106104, 0.113529, 0.305098, -0.126384, -0.106796], [-0.211502, 0.145571, -0.004207, 0.12992, 0.134148, 0.02966, 0.034172, 0.018105, 0.097117, 0.09183, 0.050337, 0.013621, -0.000976, -0.450644, 0.000885, 0.022748, -0.049138, 0.167756, -0.042985, 0.126146, -0.083398, -0.483805, -0.045511, -0.238118, -0.094018, 0.215514, -0.140212, 0.151493, 0.064543, 0.000737, 0.373673, 0.076337, -0.055203, 0.141772, -0.198023, 0.152618, 0.050854, -0.391096, 0.019126, 0.035132, -0.013626, -0.008798, 0.008766, 0.060726, -0.022417, -0.496585, -0.059151, -0.080656, 0.13059, -0.23117, -0.411218, -0.218725, 0.247351, 0.239261, -0.148684, 0.068885, -0.065756, -0.039251, -0.016735, 0.046356, 0.127481, 0.074924, -0.324854, -0.00163, -0.268395, -0.141731, -0.215445, 0.020764, 0.225647, 0.027376, 0.008175, -0.048172, -0.028188, 0.069512, -0.312476, 0.076702, -0.265945, 0.213412, -0.001646, 0.030521, 0.24615, -0.049888, -0.123837, 0.234962, -0.01214, 0.044058, 0.108823, 0.070584, -0.232528, -0.16993, 0.009056, -0.091467, -0.397049, -0.035074, -0.306977, -0.035136, 0.039054, -0.148353, -0.063173, -0.070555, -0.062644, 0.008242, 0.194833, 0.104758, 0.074191, -0.091836, 0.020987, -0.35352, -0.299722, -0.109036, 0.140416, 0.144163, -0.044566, -0.132938, -0.140976, -0.040276, -0.435524, 0.120186, 0.227657, 0.178479], [-0.018619, -0.150032, 0.062257, -0.064937, -0.041652, 0.01897, -0.079094, 0.072561, -0.122202, -0.128756, -0.020595, -0.075538, -0.00306, 0.279574, -0.17818, 0.091809, -0.093053, -0.311462, -0.097448, -0.126648, -0.218753, 0.182851, 0.19049, -0.124492, 0.035579, -0.073489, 0.112157, 0.004231, 0.034833, 0.311302, -0.208975, -0.073595, 0.027597, -0.114134, -0.12724, -0.172118, -0.123757, -0.168223, 0.018637, -0.005107, 0.081445, -0.089856, 0.01614, 0.067984, -0.282628, 0.017438, 0.002344, 0.045846, 0.074804, -0.015531, 0.199658, 0.021599, 0.028775, 0.066418, -0.05364, 0.056289, -0.179059, 0.045268, -0.126396, 0.026458, 0.06719, 0.007341, -0.03903, -0.140019, -0.044856, 0.009399, 0.197197, 0.017165, -0.233557, 0.072442, 0.082538, 0.004248, -0.022059, 0.013766, 0.007507, 0.030727, 0.082935, -0.167154, 0.037839, -0.069419, -0.096633, -0.2408, 0.172346, -0.127594, 0.169673, 0.20982, 0.041433, -0.08627, 0.224907, 0.124633, -0.028348, -0.143777, -0.049766, -0.042103, -0.078551, -0.020646, 0.050124, -0.089532, 0.077544, 0.024145, -0.082244, -0.096153, 0.03764, -0.023667, -0.058919, -0.019217, 0.159714, 0.130792, 0.017175, -0.128902, 0.04678, 0.133365, -0.00345, 0.040816, 0.134199, 0.120409, 0.09391, -0.064755, 0.161065, -0.035066], [-0.092974, 0.029904, 0.027038, 0.01574, -0.088086, -0.010479, -0.149424, 0.019048, -0.087651, -0.097369, -0.082391, -0.066897, -0.011422, -0.014781, -0.058857, 0.102832, 0.088354, -0.198694, -0.072201, -0.092296, -0.214526, -0.132491, -0.024906, 0.025781, 0.019674, -0.109184, 0.000359, 0.118402, -0.129108, 0.209205, -0.071807, -0.117233, -0.205342, 0.102414, -0.307783, 0.031984, -0.095134, -0.225835, -0.050052, 0.078013, 0.128343, 0.004584, 0.103245, -0.093728, -0.156526, -0.218731, -0.082125, -0.139072, 0.020706, -0.065361, 0.140271, 0.058727, 0.092613, -0.069253, -0.128309, -0.05078, -0.056648, 0.11972, -0.128958, 0.02672, 0.100102, 0.213412, -0.053884, -0.129268, -0.126376, -0.089547, 0.081035, -0.027456, -0.028935, 0.113992, 0.20849, 0.044921, -0.054837, 0.056428, 0.066992, 0.226989, 0.091359, 0.151437, 0.019979, -0.029298, 0.002659, -0.319394, -0.005466, 0.084344, -0.052564, 0.047919, 0.041743, 0.072325, 0.055429, -0.006663, -0.003047, -0.084912, -0.18697, -0.004737, 0.097482, 0.006329, -0.030669, 0.155101, -0.088508, -0.107532, 0.12829, 0.129849, -0.082279, 0.070035, 0.111882, -0.19505, 0.169373, -0.064379, 0.079166, 0.151261, 0.205083, 0.157351, 0.057722, 0.08928, 0.091339, -0.136992, -0.066501, -0.05369, -0.022877, 0.212285], [-0.02729, -0.168682, -0.01545, -1.6e-05, -0.050872, -0.019061, 0.022562, 0.032094, -0.150651, 0.028035, 0.076998, -0.065636, 0.01358, 0.280673, 0.039429, -0.03705, -0.049635, -0.079296, 0.041882, 0.039773, -0.081349, -0.1065, -0.017271, -0.147419, -0.107805, 0.049568, -0.028141, -0.070261, 0.014648, -0.083269, 0.03877, -0.08922, 0.075944, -0.029337, -0.185071, 0.120457, -0.097267, -0.08435, -0.149514, 0.079812, 0.225897, 0.035683, 0.115126, -0.029241, 0.020178, -0.166324, -0.184102, -0.01776, -0.151904, -0.013121, -0.087636, -0.094368, -0.117198, 0.073795, -0.079634, -0.060546, -0.102051, 0.122149, -0.048438, 0.007425, 0.099334, 0.000478, -0.067791, 0.046001, 0.07394, 0.080812, 0.165011, 0.139834, -0.184002, -0.04825, -0.033873, 0.034172, -0.053706, -0.013302, -0.093113, 0.156627, 0.20362, 0.043428, 0.071279, -0.064831, -0.026858, -0.081696, -0.049578, -0.012239, -0.021471, -0.043102, -0.059431, -0.051784, 0.11921, 0.068394, -0.040303, 0.16775, -0.275034, 0.039316, -0.030421, 0.133449, 0.053873, -0.139169, -0.113751, 0.004577, 0.1076, -0.039053, -0.016185, -0.021017, -0.094369, -0.118964, -0.056325, 0.007338, 0.099519, -0.093606, 0.133099, -0.116846, -0.022608, 0.100158, 0.148508, -0.14733, -0.138074, 0.093123, 0.134644, -0.030992], [-0.104142, 0.007705, 0.056426, 0.022473, -0.154824, 0.01632, -0.013632, -0.100088, -0.178792, 0.109629, -0.027872, 0.200411, 0.099983, -0.034292, 0.110266, 0.264431, -0.010324, -0.23955, 9.4e-05, 0.075668, -0.216769, 0.011051, -0.159463, -0.076118, 0.062615, -0.036154, -0.060989, 0.125372, -0.063317, 0.002268, 0.084684, -0.176006, -0.18251, 0.037676, 0.09405, 0.054979, 0.060062, 0.132468, -0.020282, -0.126579, -0.010811, -0.054602, 0.278203, -0.185842, -0.097364, -0.092794, -0.091191, 0.015907, 0.077477, -0.074534, 0.0158, 0.194254, -0.100196, -0.004341, -0.141192, -0.031069, -0.148062, 0.18456, 0.053452, 0.214161, 0.10726, 0.079634, -0.107245, 0.093674, 0.063146, -0.149526, -0.053978, -0.068596, 0.062876, 0.018062, 0.069988, 0.044082, -0.037094, 0.057398, 0.101246, 0.058581, -0.040192, 0.166255, -0.019603, -0.023402, -0.110087, -0.174248, 0.000856, 0.136563, 0.064108, 0.162704, -0.024547, -0.041114, 0.224683, -0.026022, -0.013516, -0.027338, 0.023285, -0.095408, 0.226284, 0.115908, 0.095622, 0.053921, -0.034512, 0.003133, 0.064159, -0.234132, 0.005163, -0.067121, -0.091349, 0.095542, 0.176776, -0.168578, 0.141035, 0.154443, 0.043459, 0.146152, 0.035277, -0.010618, -0.014275, -0.045383, -0.133899, -0.14449, 0.025346, 0.188056], [0.111183, -0.092865, -0.107629, -0.007686, 0.036566, -0.106364, 0.085696, -0.022153, -0.119646, -0.010018, -0.131176, 0.102755, 0.109364, 0.265058, 0.01041, -0.006195, 0.018855, -0.164332, -0.004501, -0.11109, -0.081265, -0.094361, -0.041396, -0.083384, -0.089355, 0.060441, -0.130711, -0.004597, -0.088404, 0.083822, 0.045173, -0.038375, -0.005525, -0.077776, -0.206087, 0.1381, -0.081859, 0.033269, 0.043574, -0.126365, 0.310811, -0.014679, 0.053501, -0.061485, -0.043577, -0.105529, 0.025278, -0.098871, -0.110578, 0.051298, 0.07443, -0.113361, 0.066542, -0.044114, -0.001351, -0.18326, -0.09161, 0.083519, 0.012753, 0.18819, 0.173037, 0.094132, -0.054751, -0.09229, 0.011384, -0.079579, 0.10733, 0.114368, -0.128715, 0.052934, 0.072523, -0.075843, 0.053487, 0.070252, -0.122046, 0.204373, 0.106178, 0.123169, 0.020189, -0.03517, -0.0702, 0.023957, -0.086289, 0.082928, 0.113522, -0.083353, 0.102164, 0.046633, 0.208358, 0.045301, -0.092566, 0.03502, -0.246743, 0.104537, 0.086931, 0.062961, -0.004988, 0.061876, 0.090505, -0.060614, 0.069773, 0.097842, -0.051544, 0.04113, -0.010206, -0.20905, 0.014254, -0.152193, 0.037614, 0.03941, 0.029831, 0.002511, -0.029653, -0.083589, 0.177291, -0.106664, -0.057665, 0.008557, 0.193695, -0.081006], [0.032966, 0.069544, -0.090275, -0.010509, -0.036115, 0.082142, 0.119539, -0.106863, 0.046473, -0.134193, -0.132432, 0.05019, -0.078295, 0.012774, 0.235788, -0.401118, 0.135736, 0.158809, -0.071984, -0.134625, 0.240925, -0.137328, 0.048485, -0.186694, -0.107989, 0.263442, 0.015089, 0.000805, 0.021341, -0.217916, 0.197563, -0.004416, 0.1783, -0.090238, -0.061176, 0.095674, 0.0672, 0.013566, 0.188265, 0.03593, 0.136384, 0.112831, -0.033113, 0.075347, 0.145323, -0.116546, -0.111887, -0.027921, -0.149886, -0.022064, -0.011274, -0.237665, -0.171617, 0.136439, 0.0424, 0.021851, 0.251925, 0.094146, -0.04655, 0.005525, -0.138917, 0.0711, 0.107669, -0.02479, 0.04604, -0.181889, -0.101216, 0.241407, 0.158416, -0.200182, -0.374501, -0.094557, -0.11879, -0.256399, -0.108939, -0.140129, -0.002001, 0.274185, 0.117513, 0.023744, 0.201653, 0.022953, -0.064052, 0.06471, -0.221075, -0.253303, -0.170114, 0.077603, -0.061566, 0.168624, 0.133115, -0.035481, -0.313585, 0.247719, -0.234195, -0.09175, -0.180917, -0.150081, -0.077675, -0.056026, 0.119006, 0.195744, 0.129615, -0.041808, 0.068443, -0.015732, -0.135232, -0.040222, -0.208566, -0.01334, -0.205308, 0.118099, -0.080411, -0.10708, 0.088437, -0.172443, -0.184761, 0.197853, -0.045482, 0.103435], [-0.131669, -0.020049, -0.091173, 0.102166, 0.073891, 0.114375, -0.009095, 0.072574, 0.010954, -0.084778, 0.000756, -0.111713, -0.115041, -0.105808, -0.00845, -0.06275, 0.107275, -0.002584, 0.042801, -0.006994, 0.167778, -0.017858, 0.071712, 0.012206, 0.062823, -0.061546, -0.011326, -0.067537, -0.133034, 0.131756, 0.17265, -0.026417, -0.040608, 0.046924, -0.042221, -0.034011, -0.11157, -0.03663, 0.044956, -0.102805, -0.089782, -0.093022, 0.140418, -0.051467, -0.00619, -0.004729, 0.097979, 0.098517, 0.023154, 0.201886, 0.093646, 0.109919, -0.115333, -0.01792, 0.047812, 0.177177, 0.115003, -0.125163, -0.076935, -0.049245, 0.094679, -0.09366, 0.055026, 0.035716, -0.105774, 0.076009, 0.044961, -0.13622, 0.024895, 0.113883, -0.093503, -0.078414, -0.122765, 0.065248, 0.162093, -0.052696, -0.067425, 0.169499, -0.123629, 0.092191, -0.047377, 0.017031, 0.046668, -0.011706, -0.020382, 0.003978, -0.123592, 0.166208, 0.021689, 0.016927, 0.062868, -0.151048, -0.209483, 0.141307, -0.019281, -0.052004, 0.11292, -0.005665, -0.011453, -0.150076, 0.122523, 0.076079, -0.10378, 0.014088, 0.00315, 0.006933, 0.056313, -0.061441, -0.137925, 0.023355, -0.065361, 0.063324, 0.014112, 0.089416, -0.119301, -0.097124, 0.114549, -0.10018, -0.065793, 0.122171], [-0.172419, -0.040557, -0.138617, -0.128866, -0.133929, 0.14921, -0.034686, 0.082068, -0.136426, 0.013545, 0.030062, -0.09438, -0.093523, 0.224464, -0.101745, 0.12719, -0.124789, 0.130789, 0.00458, -0.098759, -0.246232, -0.064321, -0.159457, -0.200211, 0.077008, -0.165676, -0.016248, 0.164055, -0.015413, 0.183568, -0.1265, 0.005747, -0.129644, 0.158886, -0.135719, 0.079589, 0.024481, -0.252011, -0.119496, -0.035764, -0.099707, 0.058654, 0.016833, -0.174999, -0.39273, -0.027621, 0.1845, 0.022146, 0.040291, 0.135811, -0.156409, -0.257894, 0.200599, -0.029942, 0.017353, 0.141475, 0.120116, 0.006907, -0.0276, 0.16063, 0.138321, -0.257674, -0.107691, 0.070606, 0.196362, 0.040485, -0.23235, 0.014619, -0.291528, 0.256756, 0.243901, -0.127945, 0.010347, -0.143023, -0.07471, 0.173559, -0.016973, 0.117739, -0.02033, -0.132668, -0.031447, 0.01271, 0.427382, -0.192395, 0.150972, 0.04495, -0.0631, -0.125908, 0.235022, -0.118217, 0.138475, 0.004312, -0.086998, 0.032214, -0.28197, 0.450173, -0.135626, 0.03487, -0.063227, 0.230958, 0.006116, -0.153031, -0.015738, 0.088838, -0.093774, -0.084697, -0.038145, 0.310074, -0.156102, -0.122718, -0.049991, -0.367078, -0.069841, -0.005781, 0.136303, -0.12176, -0.011534, 0.004647, -0.000114, 0.097288], [-0.031128, -0.085587, 0.044078, -0.075822, 0.044654, 0.011259, -0.116408, 0.07497, -0.051837, -0.015983, -0.086519, -0.125956, -0.00787, -0.005438, -0.055416, -0.090574, 0.117148, 0.119243, -0.03216, 0.055238, 0.003877, -0.136411, -0.054149, 0.045596, 0.036647, -0.001186, 0.010557, 0.006179, 0.165663, 0.159117, 0.043757, -0.091624, -0.013682, -0.065759, 0.05283, 0.046486, 0.03096, -0.057574, -0.087834, -0.151149, 0.170088, -0.023288, 0.043285, -0.072493, 0.106619, 0.089465, 0.018039, -0.0911, 0.056801, 0.04886, 0.093801, -0.205152, -0.110945, -0.047941, -0.127157, 0.172471, 0.046682, -0.003212, -0.009159, -0.110133, -0.100234, -0.057336, -0.017827, -0.107179, 0.079561, 0.033988, -0.060985, 0.22963, -0.05181, -0.15262, -0.115275, -0.119225, -0.112795, 0.106463, 0.041548, 0.097123, 0.073427, 0.169714, 0.041768, -0.063685, 0.1587, 0.021563, 0.038404, 0.044349, -0.024078, -0.007887, 0.060309, -0.007317, 0.008346, 0.106481, -0.004099, -0.069018, -0.139203, 0.024351, -0.092866, -0.061145, 0.018496, -0.421544, -0.047431, -0.060565, 0.135522, -0.045821, 0.068762, -0.089619, -0.092218, 0.051626, -0.002029, 0.090372, -0.102066, 0.106079, -0.119997, 0.019141, -0.028876, 0.107344, -0.06935, -0.11163, -0.096175, 0.01415, 0.166549, 0.008479], [-0.130824, 0.127132, -0.080627, -0.056118, -0.111782, 0.108061, 0.071025, -0.101376, 0.066534, 0.076319, -0.076859, 0.124572, -0.008811, 0.235426, 0.070871, -0.086464, 0.16643, 0.035078, -0.061151, 0.005123, -0.097605, -0.153752, 0.027314, -0.124277, -0.092412, -0.045119, 0.103482, -0.117518, 0.08119, 0.063321, -0.001713, 0.06681, 0.116349, 0.037968, -0.076671, 0.065758, 0.002617, 0.07176, -0.084873, -0.105733, 0.172934, 0.074348, -0.008043, 0.027051, -0.176275, -0.043446, -0.071137, -0.026884, -0.059366, -0.117719, -0.007261, -0.130054, 0.038044, 0.019047, 0.091337, 0.081063, 0.01817, -0.044698, 0.022561, -0.064029, 0.129455, 0.00528, -0.130868, -0.18743, -0.005407, -0.115511, -0.042814, -0.050861, -0.005739, 0.127233, 0.0825, -0.065399, 0.05876, -0.07894, -0.050964, -0.054752, 0.122731, 0.190796, -0.001997, -0.08575, -0.043725, 0.094112, -0.096399, 0.114255, -0.090891, 0.108637, -0.13538, 0.037427, 0.051926, -0.01784, 0.090252, 0.077362, -0.183603, 0.024569, 0.005255, -0.041739, -0.013655, -0.13665, 0.000217, 0.074257, -0.006092, -0.016154, 0.13263, -0.024986, -0.009481, -0.193115, 0.045559, -0.068443, 0.063016, 0.094847, 0.077858, -0.103748, 0.052877, -0.089292, 0.221077, -0.137561, 0.034941, 0.039372, 0.11021, -0.104619], [-0.01698, -0.000964, 0.102153, -0.134098, 0.042473, -0.069386, 0.013096, 0.008217, -0.063374, -0.017288, 0.030348, -0.089221, 0.066387, -0.054673, -0.090653, 0.004639, -0.082799, -0.090671, -0.032133, -0.104832, 0.064573, -0.083901, -0.11285, -0.071455, -0.107785, -0.079835, 0.034236, -0.064143, -0.064222, 0.089628, -0.09019, 0.023693, 0.064619, -0.067553, 0.0358, -0.054527, 0.080999, 0.100156, 0.136029, -0.010798, -0.070908, 0.026939, -0.032755, -0.017137, 0.180833, -0.101716, -0.090666, -0.083527, -0.1103, 0.016653, 0.016168, 0.082086, 0.033652, 0.084896, 0.002257, 0.093056, 0.090535, -0.019486, 0.033935, -0.127786, -0.095089, 0.083844, 0.070035, 0.032998, 0.048426, -0.012797, -0.170075, 0.145245, 0.050752, 0.056652, -0.115808, 0.056978, -0.106194, -0.040693, -0.038136, -0.017772, -0.05066, -0.186737, -0.065684, 0.028398, -0.060175, 0.01164, -0.010944, 0.006904, -0.12074, -0.004055, -0.14143, 0.062434, -0.06117, 0.004163, -0.064527, 0.105867, 0.043218, -0.087689, -0.076449, 0.110335, -0.048632, 0.16113, 0.076821, 0.006397, 0.044225, -0.083104, 0.02014, 0.012964, -0.091745, 0.054798, 0.040461, 0.065157, 0.012172, 0.082183, 0.024333, -0.015709, -0.032862, 0.021405, -0.129517, 0.159611, -0.001638, -0.012188, -0.103584, 0.056753], [0.026024, -0.011617, 0.010912, 0.018097, 0.015446, 0.096082, -0.000997, -0.0772, 0.090607, -0.075539, -0.031926, 0.123295, 0.089881, -0.151553, -0.128794, 0.013051, 0.177869, 0.145205, 0.040165, -0.103943, 0.051604, -0.103692, -0.229485, 0.067378, 0.060914, 0.067608, -0.005121, 0.117019, 0.086396, -0.069114, 0.043856, 0.079063, -0.044543, -0.020492, 0.007762, 0.140447, -0.084676, 0.151963, 0.081831, -0.113955, 0.001105, -0.14693, -0.051761, 0.117585, 0.148227, -0.129802, 0.018784, 0.012318, -0.051739, -0.024471, 0.111353, -0.127654, -0.129932, 0.169193, -0.082777, 0.07996, 0.031946, -0.021338, -0.104987, 0.033035, -0.01616, 0.093643, 0.025917, -0.034654, 0.030893, -0.048838, -0.151977, 0.233151, -0.122006, -0.118302, -0.175629, 0.067873, -0.015078, -0.011759, 0.067666, -0.029719, 0.048474, 0.028758, -0.103354, 0.091791, 0.048099, -0.06927, -0.00682, 0.087481, 0.054694, -0.011873, 0.015029, -0.016824, 0.017775, 0.153596, 0.173977, 0.10423, -0.159954, 0.135973, -0.018415, 0.040793, -0.150544, -0.043179, 0.024389, -0.07452, -0.140255, -0.079321, 0.122323, -0.078199, -0.043409, 0.08763, -0.038804, 0.025151, -0.029054, 0.160905, -0.041685, -0.049025, -0.099758, 0.010882, -0.092734, -0.009881, -0.121879, 0.22899, 0.188825, -0.048261], [-0.068099, 0.020303, 0.132107, -0.00436, 0.114811, 0.087677, 0.042853, 0.032603, -0.005689, 0.027891, -0.090199, -0.239658, 0.052285, -0.086429, 0.100077, 0.024077, -0.135213, 0.04704, -0.005032, -0.076709, 0.144442, 0.109053, -0.036825, 0.11805, -0.121055, 0.121142, -0.130023, -0.071654, -0.16298, 0.182298, -0.185651, 0.008001, -0.177035, 0.097998, -0.173684, -0.064868, 0.049792, -0.031026, 0.057488, 0.005913, -0.271514, 0.093105, -0.079034, -0.010624, -0.012119, 0.24821, 0.181098, -0.035181, 0.10464, -0.004443, -0.110933, 0.04506, -0.130565, 0.024185, -0.028072, 0.253602, 0.034063, -0.026346, 0.074235, 0.132564, 0.001785, -0.267136, 0.10179, -0.000527, 0.018309, 0.261967, -0.030943, -0.0426, -0.118204, 0.030473, -0.008352, -0.058585, 0.004461, -0.150479, 0.171344, 0.033263, -0.1979, 0.076543, 0.097161, 0.104429, 0.120719, 0.235381, 0.139038, -0.179689, 0.171998, 0.130648, -0.212987, -0.199101, -0.082849, -0.079175, -0.015151, -0.014968, 0.107212, 0.027579, -0.295196, 0.024971, -0.24232, -0.014143, -0.147367, -0.119425, 0.110113, -0.106801, -0.127533, 0.040357, -0.025068, 0.009512, -0.01923, 0.270646, -0.013688, -0.297067, 0.011918, -0.052394, -0.101264, 0.039821, 0.006806, 0.019816, 0.214259, -0.042692, -0.018411, -0.139639], [-0.117326, 0.040092, 0.111909, 0.063805, -0.044717, 0.096235, 0.071223, -0.047939, 0.045886, -0.029414, -0.023983, 0.048077, 0.056573, 0.005136, 0.014138, 0.115807, -0.01244, 0.057059, -0.124056, 0.059303, 0.062001, 0.013534, -0.095168, -0.071968, -0.057391, -0.116585, 0.09956, 0.00033, -0.111189, -0.059108, -0.076706, -0.070842, 0.11959, 0.000814, -0.074712, 0.17335, -0.030953, -0.029009, 0.067758, -0.113531, -0.081549, -0.013681, 0.03535, -0.15275, -0.056601, -0.046758, -0.004556, -0.062945, -0.014333, 0.14853, -0.079555, 0.026373, -0.168234, 0.080678, -0.004386, -0.016928, 0.098417, -0.247832, -0.074905, -0.080879, -0.080783, -0.132181, -0.079979, 0.023523, 0.097414, 0.135383, -0.103592, 0.033112, 0.111368, 0.144435, 0.073627, -0.112608, -0.203653, -0.080599, -0.153965, 0.040848, -0.006561, 0.078472, -0.094411, -0.149149, 0.240124, -0.012571, -0.035885, 0.097999, -0.024451, -0.050566, 0.076444, -0.044592, 0.065897, -0.108091, 0.136843, 0.132136, 0.245857, 0.055169, -0.098069, -0.010526, -0.1436, -0.009657, 0.062927, 0.050805, 0.006374, -0.016264, 0.06949, -0.007734, -0.025985, -0.109729, -0.091894, -0.126497, -0.039848, 0.079629, 0.052706, 0.127465, -0.034278, -0.11746, 0.132438, -0.061058, 0.09052, 0.017794, 0.065624, -0.061055], [-0.255266, 0.023451, -0.160674, 0.297542, 0.147252, -0.063659, -0.084411, 0.036408, 0.091992, -0.084703, 0.112985, -0.012565, 0.084435, 0.02552, -0.012438, 0.079472, -0.039201, 0.215171, 0.064886, 0.093869, 0.17191, -0.197753, 0.201601, -0.047451, 0.073444, 0.141823, -0.016073, -0.336329, 0.041439, -0.021818, 0.203026, 0.110488, 0.037111, -0.028255, -0.158156, 0.089056, 0.048737, -0.09281, 0.132145, 0.090327, -0.039219, -0.074724, -0.045437, 0.006676, -0.029344, -0.065566, -0.124374, 0.09778, -0.232948, -0.143677, -0.216624, 0.070621, -0.059822, -0.016037, 0.006126, -0.071543, 0.174407, -0.001591, -0.143503, -0.22276, -0.12148, -0.146333, -0.139482, -0.028355, -0.070139, -0.051014, -0.110759, -0.060062, 0.168005, -0.063479, 0.065878, 0.014754, -0.152619, -0.046485, -0.213903, -0.12659, 0.057553, -0.040095, -0.006647, -0.016689, 0.197945, 0.193855, -0.079455, 0.09873, -0.028457, -0.254312, -0.269652, 0.095187, -0.014118, 0.187305, 0.012648, 0.112648, 0.064876, -0.080074, -0.116469, -0.219949, 0.030698, -0.226318, -0.137987, -0.095963, 0.114494, 0.210911, 0.159335, -0.025755, -0.049847, -0.049083, -0.078283, -0.194533, 0.090096, -0.156996, -0.011266, 0.160164, -0.08441, -0.087825, 0.085027, -0.243268, 0.047997, 0.173174, -0.203279, -0.104872], [-0.339143, -0.042195, 0.329367, -0.128312, -0.083436, -0.187028, 0.101005, -0.033245, 0.1471, 0.048913, -0.101859, 0.005421, -0.000161, -0.146767, -0.052736, 0.15891, 0.117025, 0.140984, -0.017882, -0.142256, -0.037007, -0.081377, -0.117789, -0.191106, 0.016435, -0.001789, -0.111421, 0.098877, -0.198573, 0.076303, 0.013715, -0.078378, -0.03211, -0.011018, -0.115541, 0.131308, -0.116409, -0.180664, 0.035994, -0.022356, -0.031829, -0.00951, 0.029791, 0.038433, -0.084819, 0.030885, 0.129924, 0.002563, 0.083046, -0.088341, -0.041394, 0.15124, 0.102984, 0.206516, -0.003242, 0.134807, -0.059925, -0.133296, -0.128257, 0.104334, -0.030749, 0.115408, -0.060635, -0.129859, -0.121426, 0.079494, 0.088262, -0.078799, 0.166064, -0.106607, 0.027777, -0.122972, -0.044738, -0.074623, 0.033993, -0.11352, -0.174834, 0.123006, -0.080384, 0.065105, 0.180108, 0.035401, 0.055497, 0.112699, 0.132819, 0.131156, 0.118524, -0.170228, -0.075015, 0.034532, 0.158926, 0.086641, 0.007709, -0.127925, 0.005616, -0.131352, -0.134945, -0.223217, -0.036337, 0.109868, 0.074896, -0.01335, -0.035947, -0.066384, -0.055499, 0.207745, 0.047148, -0.190909, -0.065668, 0.01426, -0.153414, 0.155363, -0.085488, 0.036759, -0.091264, 0.066315, -0.161761, -0.028857, -0.03619, 0.014911], [0.171839, -0.149061, 0.043735, -0.203477, 0.013699, 0.017834, -0.045396, -0.036299, -0.144393, 0.010436, 0.06294, -0.090263, -0.093269, 0.141383, -0.19187, 0.111369, -0.083122, -0.17198, 0.105151, 0.028079, -0.013682, 0.1004, 0.050879, 0.034923, 0.04666, -0.051362, -0.026613, 0.180474, -0.250954, 0.243087, -0.114839, -0.077655, -0.201343, -0.090191, -0.410984, -0.235788, 0.0575, 0.018089, -0.003535, 0.02314, -0.106431, -0.045055, -0.14498, -0.109746, -0.084795, 0.025181, -0.046104, 0.047318, 0.158393, 0.198537, 0.09539, 0.033541, 0.04018, -0.109422, 0.160737, 0.01731, -0.1054, -0.064612, -0.074468, -0.012462, -0.003499, -0.082068, 0.042271, -0.11261, 0.121666, 0.019564, 0.283822, -0.080451, -0.174893, 0.140555, 0.026474, 0.091398, -0.164661, 0.048977, 0.213412, 0.156472, 0.044665, 0.053274, -0.079144, 0.108617, -0.163625, -0.111819, 0.092679, -0.081839, 0.113515, 0.17569, 0.011366, -0.014766, 0.118775, 0.190566, -0.116669, -0.069099, 0.065814, 0.078593, -0.025317, 0.028091, 0.13551, 0.121617, 0.010456, -0.119811, 0.003495, -0.11013, -0.086588, -0.063394, 0.011867, 0.021759, 0.008055, 0.170927, 0.094967, -0.063021, 0.104359, -0.101208, 0.099603, -0.136436, 0.084314, -0.000844, 0.289253, -0.178908, 0.162713, -0.322916], [-0.086368, 0.060408, 0.145396, -0.086145, 0.016225, 0.046993, 0.100183, -0.098392, 0.153488, 0.020501, -0.078711, 0.100694, 0.052497, -0.09065, -0.049441, 0.131178, 0.08597, -0.154222, 0.013249, -0.106716, 0.040779, -0.009358, -0.050878, -0.072119, -0.079918, -0.048704, -0.091961, 0.084119, -0.115129, 0.011411, 0.079907, -0.086727, -0.25329, 0.023663, -0.198311, -0.119222, -0.051841, -0.02082, 0.08055, -0.093299, -0.27948, 0.065908, 0.097003, -0.166666, -0.181974, -0.001432, 0.089698, -0.004007, 0.177919, 0.084332, -0.028373, 0.232368, -0.065994, -0.012632, -0.046006, -0.008296, -0.083649, -0.00094, 0.008048, 0.152739, 0.054305, -0.044128, -0.105208, -0.050787, 0.015515, 0.017417, 0.057129, 0.093005, -0.000424, 0.149919, 0.21171, -0.02659, 0.052365, 0.032238, 0.022996, -0.076784, -0.052545, -0.085813, 0.014606, -0.024123, 0.091015, -0.120427, 0.160967, -0.084839, 0.118474, 0.24134, 0.009719, 0.089449, -0.137446, -0.127048, -0.034929, -0.081787, 0.017584, -0.197784, -0.031782, -0.058626, -0.046395, 0.117287, 0.009792, -0.140934, 0.158012, -0.118202, -0.059211, -0.065796, 0.07888, 0.042058, -0.159012, -0.252998, 0.021254, 0.172152, -0.054272, 0.03395, 0.093403, 0.099184, -0.065743, -0.097401, 0.044948, -0.205253, 0.143033, -0.029571], [0.012857, -0.074809, -0.068806, 0.119533, 0.023456, -0.021213, -0.107526, 0.023537, -0.044036, -0.128494, -0.100922, 0.123855, -0.041189, 0.119259, 0.088434, -0.090612, -0.103667, -0.142314, -0.09182, 0.107224, -0.072803, -0.138115, 0.012961, -0.01907, -0.13251, -0.056109, 0.094762, 0.079104, -0.108454, -0.052834, 0.059806, -0.018619, 0.087937, -0.064095, -0.221876, 0.08716, -0.123923, 0.015616, -0.124937, -0.132708, 0.076743, 0.020167, 0.000806, 0.001807, -0.11201, 0.01688, -0.163679, 0.048282, -0.102522, -0.030821, -0.105065, -0.131334, -0.132588, 0.136971, 0.011101, 0.036982, -0.065144, -0.073845, -0.125382, -0.091634, 0.068614, 0.011855, -0.007619, -0.050762, 0.004803, -0.086895, 0.114446, -0.051522, -0.028901, -0.028598, -0.062328, -0.06179, 0.09984, 0.104465, -0.084616, -0.009183, 0.142003, -0.064159, 0.040064, -0.130704, 0.056612, -0.017536, 0.124031, 0.040018, -0.027838, 0.043239, 0.019464, -0.043353, -0.106494, -0.069721, 0.035193, -0.018332, 0.029499, 0.158006, 0.004566, 0.083397, 0.120624, -0.089163, -0.045309, 0.063277, 0.021773, -0.078762, 0.030271, -0.12838, -0.063026, -0.165345, -0.033377, -0.168852, -0.025429, 0.009457, 0.088891, -0.077714, -0.066381, 0.100044, 0.215772, 0.104461, -0.11888, 0.051546, 0.08307, 0.063225], [-0.035325, 0.03503, 0.148106, 0.007479, 0.037689, -0.046843, -0.017379, -0.12848, 0.053742, 0.025197, -0.039171, -0.11839, -0.029519, -0.027477, -0.113446, 0.078583, -0.194859, -0.151854, -0.007477, 0.072661, -0.210512, 0.233108, -0.066658, -0.20306, -0.096568, -0.105122, 0.061573, 0.136729, -0.076037, 0.074619, -0.151503, 0.00053, -0.263506, -0.015381, 0.037286, -0.002654, -0.076274, 0.001617, -0.041259, 0.070976, -0.127389, -0.014438, 0.143532, -0.202991, -0.067654, 0.079152, 0.165363, -0.09544, -0.069862, 0.154198, -0.06003, 0.100077, 0.166229, -0.059497, 0.007384, -0.101134, -0.181008, 0.138225, -0.066061, 0.166241, 0.070929, -0.160408, -0.258725, 0.085964, 0.184958, 0.032242, -0.048614, -0.042665, -0.004209, 0.268122, 0.250691, -0.149758, 0.021302, -0.022844, 0.074118, 0.048182, -0.123582, 0.114961, -0.072587, -0.068871, 0.003233, -0.309265, 0.129154, 0.070541, 0.103366, -0.060284, 0.151759, 0.109601, 0.124529, -0.054236, 0.040305, -0.051564, -0.042665, -0.181592, 0.137361, 0.067928, 0.126236, 0.009897, 0.027891, -0.073533, -0.124066, 0.033115, -0.09654, 0.095109, -0.1221, -0.130096, 0.032919, 0.098651, 0.148387, -0.020919, 0.041235, -0.028712, -0.137028, -0.097462, -0.044091, 0.036115, -0.012267, -0.132726, 0.182069, 0.005639], [-0.073801, -0.009368, -0.095783, -0.07649, -0.07355, -0.015245, 0.017765, 0.025104, 0.019854, -0.069241, 0.081349, 0.130041, -0.041617, 0.246337, -0.095366, -0.044886, 0.033064, 0.010983, -0.029112, -0.053863, 0.084831, -0.054636, 0.017645, 0.102847, 0.007385, 0.02175, -0.103827, 0.098194, -0.031731, -0.054391, -0.019016, -0.077496, -0.023272, -0.098178, -0.078342, 0.108126, -0.085505, 0.092266, 0.015117, -0.028462, 0.099541, -0.156279, 0.119393, -0.053807, 0.01879, 0.033105, 0.025416, -0.015051, -0.123232, 0.103784, 0.161552, -0.040685, 0.033096, 0.087559, 0.140122, 0.058369, 0.07542, 0.013479, 0.044924, 0.164099, 0.162102, -0.018081, 0.07396, -0.028549, 0.08705, -0.099255, 0.070922, -0.121167, -0.123811, 0.008621, -0.034894, 0.009225, -0.032749, -0.016024, 0.126337, 0.129586, 0.160306, -0.040796, -0.061779, -0.114287, 0.06487, -0.099428, 0.009861, 0.079402, -0.081918, 0.125663, -0.087869, 0.058866, 0.081014, 0.020146, 0.002779, 0.041216, -0.164818, -0.082553, 0.167746, -0.005807, 0.133705, -0.004443, -0.074278, 0.001744, -0.033983, 0.033728, -0.056974, 0.01096, -0.126279, -0.130064, -0.12727, -0.135036, 0.075881, 0.095911, 0.0798, 0.016337, -0.062386, -0.112334, 0.073224, -0.145841, 0.071414, 0.119529, -0.092953, -0.128646], [0.055698, -0.11755, -0.088874, -0.096353, -0.059299, -0.031308, 0.036366, 0.020458, 0.018584, 0.017598, 0.068621, 0.013583, 0.079175, -0.175345, 0.2649, -0.022797, 0.089581, 0.023661, -0.141783, 0.030535, 0.158967, -0.033682, -0.186148, -0.167647, 0.027313, 0.063184, 0.052687, 0.087811, 0.143213, -0.094132, 0.215391, -0.16575, 0.102275, 0.07841, 0.169411, 0.124925, -0.118992, 0.033305, 0.110277, -0.000455, 0.227716, -0.002454, 0.145573, 0.002954, -0.001429, -0.028052, 0.047069, 0.020969, -0.004385, 0.104287, 0.132553, -0.211321, -0.166972, -0.041999, 0.01811, 0.028961, 0.132975, -0.032446, -0.104033, -0.013758, -0.020778, -0.038934, -0.073461, -0.046079, -0.116251, -0.083325, -0.023923, 0.24352, 0.040751, -0.172171, -0.008952, -0.130402, -0.09058, -0.056197, 0.167844, -0.075875, 0.029907, 0.057066, -0.005928, 0.062336, 0.231413, 0.017458, -0.083924, 0.020205, -0.120254, 0.009032, 0.000821, 0.086101, 0.065792, 0.025547, 0.121011, -0.033252, -0.325199, 0.244344, 0.047886, -0.062722, -0.09878, -0.166439, -0.055132, 0.098639, -0.194419, -0.040755, -0.00046, 0.087417, -0.073634, -0.076015, -0.020615, -0.037494, -0.086128, 0.10879, 0.064036, 0.144049, -0.081186, -0.101792, -0.049216, -0.011777, -0.122325, 0.073232, -0.019183, 0.051547], [-0.150241, 0.11078, 0.112459, 0.088752, 0.015859, -0.069332, 0.001401, -0.141967, 0.138577, -0.065083, 0.091403, 0.0581, -0.095498, -0.014196, 0.037691, -0.156158, 0.046732, 0.113439, -0.133423, -0.030805, -0.053645, 0.091055, 0.109584, -0.077683, -0.065281, -0.086153, -0.051634, -0.063205, -0.126354, -0.102148, 0.234841, 0.058362, 0.046831, 0.038039, 0.050105, 0.129774, 0.058968, 0.062708, 0.071879, -0.109843, -0.185711, -0.032045, 0.031423, -0.12202, -0.19971, 0.012036, 0.096776, -0.105189, 0.038176, 0.038756, 0.094885, -0.035884, 0.018948, 0.145585, -0.020215, 0.108162, 0.064608, 0.056155, -0.01629, -0.059167, 0.102484, -0.012554, -0.052025, 0.032787, 0.013233, 0.117167, 0.080767, -0.074511, 0.117044, 0.155232, -0.118826, 0.007089, -0.065744, -0.091158, 0.048913, -0.14416, -0.039309, 0.135875, 0.070498, -0.063683, -0.078787, -0.024619, -0.037433, -0.03318, 0.025843, -0.093824, -0.029145, 0.074386, -0.026628, 0.076036, -0.025245, 0.133511, 0.051268, 0.003248, 0.037847, -0.135141, -0.040491, -0.015561, 0.062675, 0.049431, 0.061861, 0.063636, 0.102051, -0.144942, 0.095078, 0.071707, -0.057614, -0.152003, -0.072788, -0.073039, 0.105952, 0.120805, -0.05423, -0.053758, 0.172367, -0.087747, 0.05753, -0.060002, -0.034645, -0.052536], [-0.135143, 0.037533, 0.005271, 0.297483, 0.053806, -0.078556, 0.116307, -0.008207, 0.068459, 0.007295, 0.085473, -0.027869, -0.127802, 0.019366, -0.004207, 0.186494, 0.244612, 0.244303, -0.04056, -0.057223, 0.191999, 0.059379, 0.192142, -0.112061, 0.034346, -0.144282, 0.121159, -0.144665, -0.387463, 0.121305, -0.191915, 0.144402, -0.099877, 0.086858, -0.230472, -0.158815, -0.109863, -0.218181, 0.052029, -0.065909, -0.242758, -0.075254, -0.133621, -0.054141, -0.000881, 0.187952, 0.039772, -0.063444, -0.015721, 0.137027, -0.009679, -0.173877, -0.003289, 0.0254, 0.140623, 0.036363, 0.16196, 0.161979, -0.021155, -0.100099, -0.115817, -0.261263, 0.113321, -0.043088, 0.077062, 0.157589, -0.222372, -0.200475, -0.187417, -0.076251, 0.155455, -0.116466, 0.171305, -0.194257, -0.105969, -0.003056, -0.14526, 0.102831, -0.079481, 0.096866, 0.104608, 0.204038, -0.104872, -0.266998, 0.271961, 0.027766, -0.039084, -0.050032, -0.137083, -0.02574, -0.133559, 0.360278, -0.071417, 0.166964, -0.214765, -0.141147, -0.028059, 0.018614, -0.059432, 0.103373, 0.092846, -0.149761, -0.060958, -0.131375, -0.07644, 0.097544, -0.106411, 0.159491, -0.016214, -0.404281, -0.026036, -0.135114, 0.099683, 0.097928, 0.186272, 0.087774, 0.155737, -0.035533, -0.201394, -0.040794], [0.099352, 0.111431, -0.089562, -0.150464, -0.030282, 0.046964, -0.069703, 0.03886, -0.047848, 0.086968, 0.020717, 0.049387, 0.100559, -0.118166, 0.162921, 0.009503, 0.006785, -0.017695, -0.021388, 0.03581, -0.124974, -0.086736, -0.154793, -0.025677, 0.002034, 0.059682, 0.062217, 0.152662, 0.028396, 0.066934, -0.056276, 0.042877, 0.063946, -0.016256, 0.040124, 0.075627, -0.125138, -0.110419, 0.009168, 0.055051, 0.039639, -0.04923, -0.100391, -0.021974, -0.057046, -0.086467, 0.065466, -0.124375, 0.067649, 0.062116, 0.065626, 0.090896, -0.062054, -0.008918, -0.091885, 0.120718, 0.066888, 0.007102, -0.061282, -0.010746, -0.198375, 0.115269, 0.079162, -0.13193, -0.079893, -0.084782, 0.072733, 0.187666, -0.040263, -0.217192, -0.142918, 0.029342, 0.04688, 0.07313, -0.006947, -0.060626, 0.044695, -0.025457, 0.01609, 0.020308, 0.106252, -0.006184, 0.106704, -0.011285, 0.172845, 0.013252, -0.048139, -0.110358, -0.013164, -0.006916, 0.013403, -0.319807, -0.020948, -0.04533, -0.077987, -0.114377, -0.196194, -0.284347, -0.119979, 0.09617, -0.24393, -0.174661, 0.078107, 0.09833, -0.095486, -0.110558, 0.059225, 0.07536, -0.109372, 0.047764, -0.033744, 0.069743, 0.006343, -0.129761, -0.078581, -0.037033, -0.093512, 0.16427, -0.010581, 0.060256], [-0.093608, 0.039473, 0.042131, -0.055706, -0.055024, -0.080588, 0.075432, -0.142074, 0.054976, 0.037581, -0.061952, 0.011764, -0.125366, 0.200724, -0.032477, -0.113137, 0.128004, 0.072856, 0.069367, -0.142633, 0.109425, -0.043977, 0.101648, 0.10345, -0.055595, 0.055557, -0.100967, -0.153316, -0.102676, -0.104439, 0.130206, -0.064478, 0.053985, -0.032857, -0.064665, 0.146842, -0.15489, -0.039086, 0.115628, -0.054291, -0.040183, -0.121499, 0.015074, -0.110726, -0.143531, -0.076781, -0.105618, -0.054808, 0.042642, 0.029398, 0.123953, -0.139256, 0.059742, 0.01524, 0.156163, 0.072799, 0.05425, 0.056625, -0.105147, 0.026674, 0.097438, -0.043974, 0.017515, 0.072553, -0.007959, -0.052069, 0.079457, 0.019899, -0.065073, -5.9e-05, 0.094651, 0.026167, -0.180796, -0.046274, -0.079556, -0.088009, -0.030917, 0.064352, -0.052767, -0.082815, 0.11205, 0.041457, -0.12759, 0.085507, 0.034639, -0.021442, 0.025729, 0.098864, 0.09718, 0.156097, 0.007063, 0.099201, -0.156823, 0.190813, 0.012706, -0.116729, 0.172163, -0.013254, -0.039219, -0.017231, 0.097115, 0.10916, -0.047347, -0.035912, -0.132831, 0.043071, -0.060943, -0.06576, 0.091644, 0.017202, 0.094535, -0.062605, -0.058691, 0.03842, 0.195462, -0.086029, 0.060473, -0.048815, 0.002394, -0.1327], [-0.014998, -0.168421, 0.04522, -0.099629, -0.046458, -0.117181, -0.044324, 0.094791, -0.04338, -0.109914, -0.057232, -0.040924, -0.016298, -0.047659, -0.120502, -0.067975, -0.049594, 0.038461, -0.131705, 0.053739, 0.078508, 0.128951, -0.02975, 0.006326, -0.125512, 0.145148, 0.095849, 0.180902, 0.024415, 0.04856, 0.050162, 0.052918, -0.145806, -0.047176, -0.102861, -0.065859, -0.002371, 0.065787, 0.066918, 0.06254, -0.101202, -0.119281, 0.015282, 0.107996, 0.10167, -0.05816, 0.076996, -0.041642, 0.07571, -0.108075, 0.051714, 0.110118, -0.140382, 0.012242, 0.000131, -0.040116, -0.147381, 0.069741, 0.040041, -0.02073, -0.02252, 0.075324, 0.122198, -0.0663, -0.038997, 0.019644, -0.161106, -0.031366, -0.028483, -0.112171, -0.158268, -0.107736, 0.133509, 0.140041, 0.006457, 0.121694, 0.094842, -0.006882, -0.114512, -0.070404, 0.074225, -0.103207, -0.051268, 0.009466, 0.057868, 0.019045, -0.088167, -0.076584, 0.098409, -0.002339, 0.063645, 0.13572, -0.048561, -0.078019, -0.089283, 0.204073, 0.097182, -0.021721, 0.053946, 0.025289, 0.072443, -0.112548, 0.102679, 0.006313, -0.013308, -0.144605, -0.062523, 0.094851, -0.051225, 0.072883, 0.091989, -0.097701, -0.051716, -0.135485, -0.178329, 0.078099, 0.004648, 0.048322, 0.108588, -0.133008], [-0.04651, -0.008064, -0.080208, 0.048031, 0.009375, -0.04545, -0.06642, -0.004014, -0.054963, 0.011747, -0.069603, -0.072056, -0.101229, -0.202512, 0.012589, -0.012363, 0.021598, 0.134877, 0.074401, -0.080902, 0.038418, 0.092706, -0.011745, -0.036067, -0.039604, 0.209776, -0.00152, 0.040234, 0.009587, -0.052612, 0.112544, -0.015221, 0.124166, 0.104021, 0.080806, 0.149361, -0.059474, 0.086192, 0.058956, -0.123034, 0.069671, 0.071985, -0.121217, 0.044083, 0.170823, 0.012558, -0.141914, -0.081911, 0.041995, -0.032608, -0.091218, 0.084792, -0.15644, 0.066269, -0.133558, -0.011697, -0.069674, -0.050507, -0.089511, -0.028741, -0.101946, 0.106349, -0.027056, 0.006792, 0.041411, -0.095079, -0.098007, 0.15549, -0.069594, 0.060422, 0.103821, -0.151546, 0.065271, -0.003611, 0.050482, -0.042281, 0.041936, -0.000613, -0.071436, -0.009371, -0.003465, -0.089644, -0.099288, -0.082737, 0.036871, -0.10573, 0.009814, 0.012287, -0.060429, -0.159998, 0.144158, 0.101813, -0.179577, -0.087927, 0.058447, 0.070482, 0.026921, -0.055982, 0.066061, -0.054491, 0.038026, 0.098391, 0.10392, 0.031587, -0.09954, -0.07044, -0.050981, 0.078531, -0.051256, 0.16605, 0.020252, 0.03267, -0.075812, 0.080751, -0.207364, 0.077916, 0.034818, 0.19684, -0.038249, 0.135547], [-0.111767, 0.036855, 0.146207, 0.144769, 0.115747, 0.097932, -0.055582, -0.087843, 0.068004, 0.016325, -0.037909, -0.100123, 0.025309, 0.016442, 0.054536, 0.068682, 0.14782, 0.110994, -0.11598, -0.024526, 0.143812, 0.089667, -0.012986, 0.020082, -0.113954, -0.009749, 0.00344, 0.032223, 0.013966, -0.202578, -0.122586, 0.177482, 0.093994, 0.136274, -0.115428, -0.010406, -0.191023, -0.018002, 0.049589, 0.027616, -0.125523, -0.000799, -0.038638, 0.060605, -0.183146, 0.12437, 0.045599, -0.038071, -0.123676, 0.006719, -0.16487, -0.107045, -0.169751, -0.0077, 0.006429, 0.038832, 0.02753, 0.003882, 0.014556, -0.023715, -0.199361, 0.010619, 0.151354, 0.018279, -0.076439, 0.132017, -0.132948, -0.202195, -0.027217, 0.040617, -0.12986, 0.023504, 0.108246, 0.081665, 0.14904, 0.077128, -0.1569, 0.011987, 0.07396, 0.001531, 0.108797, 0.033315, -0.164142, -0.132694, 0.128534, -0.014517, -0.058342, 0.076141, -0.053481, -0.092036, 0.016392, -0.044633, 0.201443, 0.045787, 0.023827, -0.127318, -0.110778, -0.04001, -0.118853, 0.164285, 0.062859, 0.037215, -0.083991, 0.052934, -0.105708, 0.113951, -0.063719, 0.023518, -0.104122, -0.066686, -0.234957, -0.1035, -0.068081, -0.103391, 0.046847, 0.006435, 0.004006, -0.049008, -0.193871, 0.078867], [-0.117437, -0.024537, 0.134635, 0.023467, -0.076947, 0.144719, -0.069855, 0.023586, 0.111024, -0.043197, -0.036932, -0.060151, -0.030163, 0.124238, -0.12418, 0.000145, 0.000949, -0.036845, -0.119615, 0.043534, 0.016715, 0.070515, 0.092385, -0.008221, 0.011683, 0.055136, 0.048312, -0.059649, 0.077648, -0.081052, -0.090943, -0.108215, 0.064602, 0.045591, 0.119959, 0.128054, -0.078666, 0.101467, 0.053755, 0.086635, -0.094572, -0.035632, 0.09451, 0.003733, -0.028006, 0.065987, -0.18864, -0.094396, -0.039395, 0.084143, 0.069391, -0.083887, 0.075938, -0.032723, 0.096128, -0.104617, 0.041326, 0.001329, -0.054443, -0.042418, 0.127056, -0.063972, -0.185338, -0.16479, 0.040087, 0.08069, -0.020175, 0.021716, 0.116161, -0.097591, 0.112576, -0.031128, -0.059778, -0.01423, -0.014399, -0.091937, 0.026383, -0.007271, 0.050263, -0.018842, 0.025478, -0.008022, -0.122163, 0.110824, 0.002167, -0.1164, -0.051368, -0.067444, -0.078689, -0.028342, 0.179727, 0.032362, 0.007998, 0.098623, 0.10994, 0.082298, 0.027095, -0.013168, 0.017843, -0.016636, -0.092923, 0.037356, 0.050117, -0.070863, 0.090922, -0.01534, -0.035427, -0.007487, -0.092359, -0.056524, -0.053191, -0.005057, -0.046006, -0.005693, 0.152846, -0.058658, -0.055833, 0.129262, -0.090572, -0.003219], [-0.038334, -0.083722, 0.083901, -0.015187, 0.222493, 0.056229, -0.01169, 0.020516, 0.025636, 0.102606, 0.02163, -0.05842, -0.054226, 0.082477, -0.047842, -0.17289, 0.182233, 0.100405, -0.06173, -0.114924, 0.014879, -0.150977, 0.219355, -0.004063, 0.100871, -0.099202, -0.043286, -0.065608, -0.198101, -0.194788, 0.034494, -0.023115, 0.084504, -0.218764, 0.148182, -0.052921, 0.037589, 0.057641, 0.089116, 0.037301, 0.244618, -0.029913, -0.143011, 0.109285, -0.18838, -0.048087, -0.1645, -0.081734, -0.061776, -0.218181, -0.136651, -0.127278, 0.028959, 0.070873, 0.038491, -0.006685, 0.008646, -0.074559, -0.045753, -0.099874, -0.162381, -0.087424, 0.035491, -0.159952, -0.098169, -0.143538, -0.154559, -0.1542, 0.07112, -0.176287, -0.078835, 0.054393, -0.103283, 0.129941, -0.238614, -0.03744, -0.112954, 0.037542, 0.104481, 0.025106, -0.002836, 0.109771, -0.298969, 0.265396, -0.016058, 0.145769, 0.044339, 0.067592, -0.089604, 0.067542, -0.029485, 0.163944, -0.019684, -0.090673, 0.162049, -0.031276, -0.039056, -0.028531, 0.068213, -0.185706, 0.182496, 0.092357, 0.134557, -0.093105, 0.01488, -0.090562, -0.131707, -0.097061, 0.046304, -0.1035, -0.197394, 0.068844, 0.034165, -0.108102, 0.115163, 0.124105, 0.229206, -0.075138, -0.20555, -0.110119], [-0.087676, -0.092087, 0.115516, -0.010782, 0.004494, 0.08846, 0.092171, -0.094302, 0.116978, -0.054485, -0.093063, 0.026545, -0.106729, 0.20783, 0.075536, 0.08148, 0.104129, -0.060755, -0.106222, 0.060927, -0.009547, -0.024465, -0.113903, -0.064531, -0.065186, 0.120949, -0.092731, -0.052502, -0.077226, -0.050334, -0.073712, -0.200616, -0.006831, 0.120214, 0.05259, 0.11257, -0.029706, -0.008463, -0.008808, 0.053471, 0.062696, -0.120567, -0.055237, 0.071727, -0.272398, 0.133952, 0.015419, -0.069716, 0.049699, 0.009205, -0.072787, 0.103595, 0.108324, -0.008703, 0.062887, -0.036485, 0.090626, -0.167543, 0.06111, 0.211752, -0.233395, 0.034191, -0.246898, -0.138857, -0.035923, 0.005606, 0.063822, 0.056059, 0.240602, 0.053527, 0.074388, -0.009654, -0.099094, 0.020915, -0.16654, -0.159921, -0.118393, -0.089801, -0.110925, 0.003841, 7.3e-05, 0.054445, 0.020382, 0.183605, -0.007058, 0.087916, 0.110737, -0.043264, -0.030274, 0.119373, 0.135387, 0.081055, 0.23853, -0.190658, 0.191377, -0.022484, -0.087655, -0.209344, -0.077951, -0.067254, -0.140999, 0.25442, -0.067442, 0.079561, -0.079301, 0.04008, -0.110845, -0.261033, -0.10541, 0.041908, 0.092443, 0.236068, -0.118496, -0.007375, 0.04973, -0.101303, 0.130475, -0.034957, 0.112563, -0.10797], [0.236178, -0.114702, 0.203028, -0.014758, 0.075194, 0.138227, 0.091836, 0.036723, 0.105734, -0.126387, -0.051613, -0.219214, 0.087906, -0.122145, -0.014334, -0.06083, -0.009987, -0.140504, 0.031841, -0.090479, -0.058576, -0.045211, 0.014219, 0.089932, -0.106945, 0.025215, 0.104593, 0.059004, -0.234074, 0.126716, -0.270904, 0.128263, 0.085853, 0.051655, -0.39372, -0.309291, 0.078607, -0.045805, 0.030363, -0.00196, -0.356052, 0.110174, 0.025171, 0.097618, -0.22866, 0.20883, 0.079704, -0.048391, -0.025793, 0.103752, -0.096366, -0.057544, 0.02065, 0.019975, -0.105741, 0.180296, 0.162391, -0.024114, 0.025444, -0.091267, -0.111978, -0.184633, 0.062597, -0.189877, 0.210629, 0.263315, 0.045499, -0.077875, -0.068071, 0.143719, -0.1834, -0.039365, 0.06452, 0.056026, 0.165636, 0.16791, 0.057931, -0.138291, 0.085056, -0.067952, 0.065218, 0.118013, 0.120382, -0.20268, 0.270926, 0.239405, -0.053693, -0.01555, 0.030682, -0.00994, -0.031956, 0.107981, 0.118019, 0.054537, -0.192353, -0.115961, -0.02145, 0.165895, 0.064287, 0.021323, 0.075085, 0.049031, -0.041332, -0.074119, -0.036457, -0.053427, 0.151112, 0.175804, 0.044676, -0.177408, 0.011764, -0.150136, -0.036191, -0.114698, -0.023668, 0.246093, -0.020396, -0.176901, 0.01967, -0.150851], [-0.161222, 0.045127, 0.104445, -0.218705, -0.129142, 0.017853, -0.035223, -0.088074, -0.003926, 0.040663, 0.10349, -0.127188, -0.040159, 0.020903, 0.060825, 0.072544, -0.096677, 0.030923, 0.073819, -0.059828, 0.056284, 0.134342, 0.197362, -0.072031, -0.030448, 0.041556, 0.027681, 0.069198, -0.227542, -0.027323, -0.067191, 0.03624, 0.007052, -0.003113, -0.017603, -0.120002, 0.014694, -0.189365, -0.065581, -0.10694, -0.325879, -0.067847, 0.078577, -0.045705, -0.155692, 0.087261, 0.094328, -0.065256, -0.038823, 0.083471, -0.123875, 0.214971, -0.083971, 0.151403, -0.044377, -0.070186, 0.056857, 0.12855, -0.003046, 0.036858, -0.011331, 0.059843, -0.136956, 0.003569, 0.005148, -0.038211, 0.086098, -0.048155, 0.155183, 0.212011, 0.044842, -0.052817, -0.097534, -0.107218, -0.020115, 0.070012, -0.03212, 0.080548, 0.005349, -0.091809, 0.083582, 0.057055, 0.148557, -0.099692, 0.140406, 0.019858, -0.007869, -0.067574, -0.011481, 0.023393, 0.023721, -0.0665, 0.238152, -0.094843, 0.0262, 0.129975, 0.101943, -0.016007, -0.068441, -0.191262, -0.092446, 0.090484, -0.025936, 0.093945, 0.026891, 0.019976, -0.028408, 0.005796, 0.003485, 0.003354, 0.059579, 0.052016, -0.125364, 0.000387, 0.096079, -0.089899, 0.007542, 0.025984, 0.047737, -0.003892], [-0.050077, -0.082808, 0.012339, -0.029022, 0.152463, 0.110927, -0.159594, -0.062639, 0.075776, 0.096556, -0.086586, 0.061025, -0.053108, 0.005139, -0.008353, -0.146149, 0.133746, -0.100491, -0.136864, -0.132166, 0.04031, -0.101211, 0.076859, 0.058311, -0.134557, -0.044345, -0.002632, 0.046433, -0.092692, -0.076714, -0.117203, 0.078916, 0.099411, 0.103319, 0.067366, -0.019626, 0.032245, 0.06905, -0.011865, 0.057997, -0.144223, -0.052836, -0.045521, 0.000473, -0.01793, -0.059775, -0.120372, 0.057904, 0.035347, -0.148092, -0.142693, 0.046883, -0.016083, 0.07789, 0.002174, -0.130427, 0.071745, -0.074825, -0.147441, 0.109895, -0.042538, 0.041777, -0.029305, -0.099575, -0.052502, 0.033411, 0.026881, 0.087639, 0.014698, 0.077988, -0.028257, 0.025367, -0.117429, 0.040151, -0.031699, 0.034809, -0.033234, -0.103441, 0.079308, 0.07468, 0.096719, -0.081096, -0.120191, 0.018368, -0.066251, -0.079391, 0.046639, 0.010198, -0.062569, -0.048714, 0.039563, -0.014641, -0.088518, -0.017874, 0.000553, 0.000544, 0.005411, -0.127612, 0.045157, 0.07829, -0.004272, -0.052392, 0.050433, -0.022473, -0.033107, -0.002943, -0.112443, 0.003972, 0.009843, -0.04088, -0.125039, -0.009987, 0.029341, 0.043575, 0.223954, 0.021196, 0.120901, 0.081972, 0.008657, 0.013693], [-0.132421, 0.057993, 0.013358, 0.022017, 0.089267, 0.048447, -0.099354, -0.022698, 0.02149, 0.074624, -0.105143, -0.098485, -0.034071, -0.133548, -0.142586, 0.207635, -0.332979, 0.157177, 0.036766, -0.024933, -0.086623, 0.267299, 0.32705, -0.090631, -0.098642, -0.153383, -0.116077, -0.134033, -0.083745, -0.01287, -0.002077, 0.038953, -0.063191, 0.213637, -0.332647, 0.016604, -0.063283, -0.180774, 0.075513, 0.109205, -0.406659, 0.087823, -0.062963, 0.051103, -0.166827, 0.038656, 0.161199, 0.001031, -0.075462, 0.185066, -0.01723, 0.204948, -0.173347, 0.131551, -0.035154, 0.179982, -0.004538, -0.162231, -0.076488, 0.147547, 0.250342, -0.232392, -0.285519, -0.079667, 0.10113, 0.081616, -0.108788, 0.019396, 0.263921, 0.206965, 0.089627, 0.048464, -0.028994, -0.082831, -0.154646, 0.084243, -0.029679, -0.119183, 0.043667, 0.030294, -0.102398, -0.030603, 0.350447, 0.012951, 0.148975, -0.119539, -0.068586, -0.071284, 0.009081, -0.147255, -0.012361, -0.12837, 0.170251, -0.361506, -0.133258, 0.108687, 0.081743, 0.009948, 0.104602, 0.021795, -0.32818, 0.309228, -0.251905, -0.013536, 0.115017, -0.105346, -0.043006, -0.147021, -0.075275, -0.309651, 0.017526, -0.104751, 0.017515, 0.083995, 0.175472, -0.060436, 0.155617, -0.069038, 0.19417, -0.127412], [0.075116, 0.033762, -0.157702, 0.103808, 0.014518, -0.04122, 0.02792, 0.075594, 0.094959, -0.123056, 0.021607, -0.0951, 0.069868, -0.007778, 0.03563, -0.128883, 0.04143, 0.059611, 0.020427, 0.098647, -0.071083, 0.027466, 0.080158, -0.075642, -0.121337, 0.045902, -0.021369, 0.033862, 0.004568, 0.036707, -0.060461, -0.021716, 0.056656, 0.117601, 0.047303, -0.088308, -0.13249, 0.027542, -0.097276, -0.002703, -0.138821, 0.019396, 0.061663, 0.07692, -0.144353, 0.065364, -0.085725, -0.115291, -0.137852, -0.008322, 0.001709, 0.135217, -0.156294, -0.066078, 0.104083, -0.076622, -0.08155, 0.034471, -0.092428, -0.016348, -0.029635, 0.043592, 0.012337, -0.025384, -0.049785, -0.037901, 0.048772, -0.006035, 0.073432, -0.078115, -0.004351, 0.081251, -0.120623, 0.023302, 0.080124, -0.004733, 0.082401, -0.041155, -0.119805, -0.050948, 0.083999, -0.041437, -0.016062, -0.060304, -0.051191, 0.041547, -0.056175, -0.120456, 0.063307, 0.135506, -0.092569, 0.004648, -0.101136, -0.052153, 0.134231, -0.057341, 0.090778, 0.094001, -0.053284, 0.001143, -0.036647, 0.092184, 0.118075, 0.015619, -0.012443, -0.054936, -0.055364, 0.016341, -0.014394, -0.093164, 0.096788, 0.016332, -0.028072, 0.073068, 0.106655, -0.029741, -0.021692, 0.095868, 0.037955, 0.078749], [-0.053885, -0.034166, -0.21028, 0.056961, 0.074921, 0.075236, 0.009304, -0.051705, 0.013677, 0.011415, 0.006403, 0.145748, -0.120308, -0.003283, 0.117249, -0.011158, -0.040487, 0.14922, 0.02863, -0.012322, 0.136017, -0.098948, 0.011401, -0.151648, -0.110684, 0.050024, 0.069183, 0.05362, 0.211441, 0.172529, 0.075918, -0.029836, 0.09083, -0.068052, 0.274588, 0.082537, -0.043698, -0.16222, 0.068039, -0.05755, 0.065964, 0.041342, 0.134385, 0.01589, -0.093039, -0.099982, 0.015188, -0.015222, 0.034623, 0.029444, 0.148164, 0.044054, 0.087046, 0.149671, -0.171378, 0.002773, 0.095321, 0.034614, -0.135345, 0.040797, 0.128824, 0.129827, -0.136468, 0.028742, -0.115552, 0.007225, -0.043977, 0.169427, 0.22661, 0.134365, 0.025704, -0.114456, 0.037743, -0.03998, 0.05264, -0.103754, 0.064028, -0.086318, 0.049243, -0.01346, 0.013079, -0.032733, 0.202098, -0.116967, -0.114858, -0.001195, 0.046916, -0.12251, 0.046098, 0.069626, 0.241429, -0.082144, -0.242877, -0.052862, 0.089868, -0.071578, 0.036247, -0.145422, 0.028303, -0.131369, -0.132732, 0.018486, 0.057938, 0.045805, 0.023874, 0.050017, -0.217454, -0.159593, 0.055768, 0.226412, -0.086585, 0.038343, 0.094336, -0.136152, -0.222566, 0.057768, -0.107695, 0.183717, 0.150471, 0.124765], [0.034603, 0.208422, -0.100733, 0.024595, 0.040828, -0.137043, 0.088247, -0.133939, 0.216585, 0.096755, 0.099691, 0.018152, -0.022375, -0.050658, 0.163144, 0.01734, 0.144932, 0.174619, -0.094451, 0.021324, 0.152632, 0.027335, 0.174431, -0.093284, -0.024335, -0.207719, -0.035188, -0.155415, -0.012375, -0.163835, 0.133295, 0.022686, -0.029466, 0.031035, 0.144562, -0.025382, 0.046248, -0.059026, -0.205632, -0.059066, -0.285278, 0.004062, 0.004645, -0.089088, -0.119279, 0.025167, 0.080063, -0.155912, -0.085044, 0.102167, 0.065274, 0.089781, 0.125166, -0.010193, -0.105624, -0.023332, 0.069982, 0.223598, 0.091895, -0.083151, 0.137409, 0.004467, -0.123729, -0.124673, -0.012486, 0.133957, 0.060888, -0.130384, 0.082845, -0.012512, -0.066734, -0.161137, -1.7e-05, -0.006302, 0.043205, -0.062475, -0.082097, 0.056988, -0.044716, -0.049755, 0.004827, -0.08831, 0.106769, 0.102753, -0.06014, -0.03475, 0.005691, -0.088893, -0.062212, -0.104772, 0.042609, -0.044349, 0.105418, -0.015516, -0.04265, -0.19988, 0.058238, -0.141849, -0.10186, -0.055455, 0.04736, -0.035597, -0.04869, 0.042227, -0.119008, 0.218462, -0.061543, 0.053347, -0.073427, 0.021726, -0.009273, 0.03019, 0.077761, -0.051951, 0.22661, -0.039168, 0.038578, 0.157957, -0.040466, 0.119632], [-0.224959, -0.071555, 0.10469, 0.152423, -0.003569, 0.166764, -0.097641, -0.022507, 0.100377, 0.102264, -0.023159, -0.121366, -0.049789, -0.046611, 0.015281, 0.096423, 0.198042, 0.062097, 0.072862, -0.054152, 0.172115, -0.15881, -0.025978, -0.024147, -0.075408, -0.030825, -0.127216, -0.00043, -0.104319, -0.014355, -0.062239, 0.176912, -0.034332, 0.120638, -0.244045, -0.029279, -0.023714, -0.119576, 0.071445, 0.042267, -0.103801, -0.146285, -0.017128, 0.0214, -0.144204, 0.00448, -0.17191, 0.000994, 0.004522, 0.087069, -0.070432, -0.063005, -0.136555, 0.110632, 0.085508, 0.071105, 0.130054, 0.177958, 0.028812, -0.04881, 0.029642, -0.116362, 0.206432, 0.094957, -0.139092, -0.058861, -0.248071, -0.105135, -0.001938, -0.156438, 0.035822, -0.027009, -0.096281, 0.046728, -0.138487, 0.043813, 0.013788, -0.040897, -0.034733, -0.077185, 0.013899, 0.027459, -0.150885, -0.091821, -0.023817, 0.083498, -0.056158, 0.12627, -0.121096, -0.236893, 0.024957, 0.08283, -0.008485, 0.142986, -0.233938, -0.168311, -0.083299, 0.086089, 0.078695, 0.164029, 0.224861, -0.085502, -0.050588, -0.07483, -0.011219, 0.136741, 0.020773, 0.108886, -0.006145, -0.141202, -0.093292, -0.059653, 0.08174, 0.08852, 0.205776, 0.168425, 0.113029, -0.039274, -0.039699, 0.060147], [-0.059052, 0.097657, 0.05965, -0.236627, -0.116264, 0.067376, -0.07429, 0.079065, -0.121316, -0.129596, -0.14714, -0.092773, 0.045609, 0.045845, -0.003483, -0.270024, 0.193115, -0.10573, -0.147152, -0.057699, 0.050668, -0.022975, -0.229433, 0.004809, -0.063513, -0.063919, 0.000296, 0.034947, 0.06803, 0.034463, -0.075554, -0.179588, 0.019767, 0.021262, 0.079256, -0.025376, -0.108469, 0.045256, -0.051996, 0.011667, -0.019122, 0.002246, -0.026685, -0.093984, 0.111782, 0.092841, -0.022321, -0.01462, -0.009766, 0.004851, 0.014726, 0.032504, 0.187648, 0.055452, 0.09504, 0.165379, 0.075876, -0.217039, -0.121999, -0.071797, 0.033273, -0.048953, -0.110784, 0.117871, 0.039028, 0.012917, 0.22363, 0.243656, 0.236291, -0.011033, -0.134912, 0.071794, 0.019894, 0.050804, -0.02652, -0.087522, 0.241328, -0.112596, -0.090294, -0.086388, 0.235983, -0.296747, 0.061481, -0.073854, -0.048223, -0.061199, 0.012162, -0.03006, 0.01433, -0.04712, 0.237773, -0.064207, 0.070476, -0.062243, 0.160798, 0.135546, 0.126399, -0.309231, -0.00673, 0.002569, -0.016324, -0.004306, 0.069834, -0.041614, 0.043496, -0.184021, -0.150984, -0.099411, 0.077541, -0.030309, -0.045284, 0.193951, -0.135919, 0.090972, -0.188734, -0.07058, 0.044674, 0.159609, 0.161524, -0.041881], [0.066669, 0.129512, -0.111671, 0.011337, 0.092062, 0.14022, -0.146501, -0.137446, 0.043916, -0.072965, -0.108614, -0.023597, -0.082502, 0.227692, -0.050715, -0.234767, -0.015094, -0.093311, 0.090458, 0.04397, -0.002299, 0.050922, 0.105734, 0.136395, -0.053928, -0.165342, -0.099281, 0.091116, -0.051583, -0.103976, 0.039551, -0.032417, 0.165911, -0.092558, 0.028502, -0.062183, -0.018402, -0.092198, -0.149618, -0.040276, 0.021477, -0.111472, 0.038766, 0.121102, -0.017328, -0.051814, -0.133203, -0.072087, 0.075191, -0.024759, -0.00777, -0.013846, -0.125454, 0.035386, -0.037406, -0.027407, 0.162326, 0.066782, 0.065813, 0.057199, 0.008882, -0.167804, -0.030258, 0.043586, 0.158908, -0.068474, 0.151632, 0.057844, 0.091262, -0.026493, -0.109867, 0.021962, -0.006132, 0.080496, 0.106764, -0.063792, 0.066608, -0.087169, 0.114686, 0.082091, -0.027653, 0.017861, 0.058326, -0.074331, 0.099846, -0.001754, 0.077523, 0.082472, -0.088665, 0.0008, 0.009806, -0.111756, -0.146398, -0.056719, 0.072907, 0.06435, 0.100075, 0.001812, -0.070489, 0.017769, -0.058618, 0.059835, -0.048247, -0.07725, -0.011523, 0.048047, -0.069646, -0.026115, 0.05108, 0.14787, 0.159361, 0.01273, 0.065835, -0.04296, 0.108361, -0.225292, 0.159511, -0.001875, 0.172063, -0.046575], [-0.082136, 0.097986, 0.01432, -0.021604, -0.058103, -0.060229, -0.000512, -0.045886, -0.039302, 0.074264, -0.08206, -0.05006, -0.012866, -0.142957, -0.064852, -0.009166, 0.100911, 0.134958, 0.05419, 0.089746, -0.094191, 0.196935, -0.155812, -0.088035, -0.05061, 0.050537, -0.045169, 0.046005, 0.071941, 0.004868, -0.020783, 0.040002, 0.000632, 0.148087, -0.019395, 0.105558, -0.006912, -0.054646, 0.13649, 0.035402, -0.177189, -0.097588, -0.059403, 0.020727, 0.22859, 0.069649, -0.051144, -0.07297, 0.048107, -0.10051, -0.162674, 0.075693, 0.032276, 0.06004, -0.082711, 0.160812, -0.098595, -0.000385, -0.075216, 0.011723, 0.147847, -0.029853, -0.170514, 0.041786, 0.153749, -0.08186, -0.078527, 0.228858, 0.077103, -0.107683, 0.001838, -0.106098, 0.0733, 0.122441, 0.050579, 0.137667, 0.10655, -0.147709, -0.007877, 0.033452, -0.057304, -0.027079, 0.12551, -0.054092, -0.021043, -0.283298, 0.023757, -0.025328, -0.028162, -0.089898, 0.102243, -0.061068, 0.193745, -0.084433, -0.131992, 0.148901, 0.022471, -0.085379, -0.101541, 0.107657, -0.121354, -0.092876, 0.045571, 0.137448, -0.1375, -0.17272, 0.092341, 0.104209, -0.05507, -0.095744, 0.035498, -0.121116, -0.045946, 0.02332, -0.195373, 0.020446, -0.014369, -0.023229, -0.093527, -0.02863], [0.090347, -0.046544, -0.078972, 0.003893, -0.08969, 0.029003, -0.090125, 0.056489, -0.144868, -0.132262, -0.123147, -0.025494, -0.051271, -0.100168, 0.1053, -0.015127, 0.057017, 0.078565, 0.013083, 0.030059, 0.073048, 0.066337, -0.153998, 0.083782, 0.056349, 0.204719, -0.12466, -0.011435, 0.078867, 0.122214, -0.029674, 0.061111, 0.136859, -0.053988, 0.180137, 0.035165, -0.042476, 0.040893, -0.006128, -0.074392, 0.139253, 0.0195, 0.120917, 0.094163, 0.103527, -0.043495, -0.158334, 0.047197, 0.060606, -0.052031, 0.039936, 0.105687, -0.174211, 0.008646, -0.078784, 0.010197, -0.039049, 0.146653, 0.022827, 0.086511, 0.146221, 0.11179, 0.108891, -0.177538, -1.8e-05, -0.015631, -0.001515, -0.016853, 0.127568, -0.174181, 0.210857, -0.044779, -0.046652, 0.066153, -0.098188, -0.115056, 0.060827, 0.036884, -0.012851, 0.054239, -0.03891, -0.152722, -0.065418, -0.00844, -0.143379, -0.099684, -0.053769, 0.049327, 0.022763, -0.09149, 0.100628, -0.062604, -0.045729, -0.079785, -0.077752, 0.121341, -0.101425, -0.082241, 0.07177, 0.063917, -0.037521, 0.131439, 0.121031, -0.03466, 0.038571, -0.165422, 0.026875, 0.09746, -0.024797, 0.106988, 0.121273, -0.157696, -0.026899, -0.008666, -0.110561, -0.016258, 0.029276, 0.036523, 0.035386, -0.044412], [-0.135582, 0.014721, -0.061311, 0.161544, 0.081183, -0.14302, -0.121272, 0.090927, 0.13284, -0.1126, 0.0593, 0.028367, -0.113796, 0.123317, 0.128398, -0.050629, 0.290039, 0.106474, -0.010018, -0.002643, 0.167354, -0.126817, -0.146304, -0.09025, 0.045111, 0.191146, 0.035357, -0.164851, -0.070648, -0.119956, 0.054403, 0.289716, -0.023593, 0.038281, 0.113919, 0.127362, 0.040023, 0.041014, -0.056924, 0.010411, -0.292932, -0.110972, 0.068405, -0.014263, -0.020935, -0.126805, 0.033305, -0.082057, -0.088321, -0.09935, 0.003126, -0.069182, -0.007905, -0.195916, -0.047862, -0.235705, 0.116181, 0.014612, 0.056534, -0.007033, 0.143814, -0.008977, 0.072997, -0.096368, -0.370517, 0.078438, -0.190854, -0.239673, 0.19534, -0.128157, -0.175717, 0.012077, -0.08093, 0.184296, -0.025987, 0.058438, 0.019326, 0.057414, -0.077749, -0.084518, 0.026857, 0.031078, -0.05782, -0.040669, 0.030896, 0.069232, 0.084427, -0.131192, -0.103704, -0.05695, -0.112348, 0.001568, 0.019791, 0.203996, 0.047067, -0.023075, 0.053053, -0.046747, -0.130675, 0.050911, 0.049488, -0.01142, -0.167933, -0.04442, -0.082367, -0.004695, 0.159548, -0.07367, -0.037862, 0.013442, -0.281347, 0.05033, 0.087612, -0.044477, 0.196257, 0.066215, 0.047912, 0.121689, -0.161528, 0.24165], [0.051018, -0.088173, 0.018079, 0.130342, 0.064827, 0.152757, -0.049641, -0.113248, 0.003583, 0.054889, -0.034411, -0.012295, -0.006143, 0.078825, -0.007178, -0.182843, -0.011582, -0.144794, 0.036563, 0.111536, 0.021207, -0.094543, 0.152334, 0.096464, -0.00775, 0.154144, -0.124553, -0.08016, 0.004364, -0.047165, -0.086235, -0.012437, 0.123816, -0.126181, 0.245974, -0.115943, -0.03349, 0.135559, -0.065153, -0.041512, -0.126139, -0.095576, 0.017391, 0.043912, -0.167681, 0.106964, 0.026138, 0.020267, -0.071616, 0.036253, 0.016028, -0.031123, -0.18377, 0.063364, -0.026379, 0.041223, -0.022868, -0.050745, -0.1654, 0.149562, -0.001536, -0.152635, -0.100206, -0.121981, -0.058771, -0.096918, 0.174025, 0.125137, 0.040887, 0.026156, -0.125979, -0.04799, 0.029398, -0.005321, 0.061357, -0.013094, -0.04051, 0.104295, 0.109998, -0.138707, 0.014344, 0.127091, 0.065423, 0.160264, 0.04618, -0.155064, -0.127488, -0.193179, 0.015868, 0.126366, -0.029396, -0.0362, 0.084176, 0.096362, -0.071587, 0.050595, 0.040717, 0.024127, -0.052187, 0.145551, 0.001403, 0.068886, -0.031351, 0.010755, 0.050428, -0.154319, 0.033608, -0.05072, -0.054319, 0.075439, -0.117061, 0.083356, 0.051042, 0.0948, 0.236059, -0.13116, -0.041993, 0.046888, -0.119558, -0.102168], [0.077461, 0.091518, 0.046411, -0.10753, 0.145887, 0.004845, -0.061786, 0.054175, 0.019075, 0.0273, -0.086751, 0.008124, -0.129448, 0.159201, 0.125029, -0.2736, 0.09497, -0.012956, 0.027548, 0.093575, 0.165138, -0.436353, 0.111192, -0.065977, 0.030335, -0.017241, -0.029699, 0.036718, 0.026387, -0.091479, -0.025626, 0.14557, 0.225912, -0.29716, 0.155812, -0.007295, -0.03129, 0.066882, -0.066275, 0.067, 0.033276, -0.012984, 0.185728, -0.008612, -0.054899, -0.279509, -0.055684, 0.007385, 0.117628, -0.141669, -0.033382, 0.030061, -0.130915, 0.089632, 0.048067, 0.034007, -0.151828, -0.027862, 0.036367, -0.259057, 0.078186, 0.18654, -0.042634, 0.027041, -0.140345, -0.045979, 0.139025, -0.221343, 0.021267, -0.292415, -0.175529, -0.085841, -0.140321, 0.204866, 0.072403, -0.131512, 0.110368, -0.027385, -0.089536, 0.120235, 0.135567, -0.156477, -0.23524, 0.13907, -0.147564, 0.087475, 0.01371, 0.019704, -0.039148, -0.02122, -0.084741, 0.077082, -0.274403, -0.003393, -0.011123, -0.03203, -0.004371, -0.039435, -0.13748, -0.080851, 0.283972, -0.239317, 0.109577, -0.075329, -0.012819, -0.10245, -0.066146, -0.024509, 0.035459, 0.181396, 0.0768, 0.309376, -0.108738, -0.074995, -0.040261, 0.012691, -0.111161, 0.119244, -0.057883, -0.049412], [-0.149892, 0.097265, 0.026502, -0.096017, -0.167615, 0.116223, -0.041027, 0.098167, -0.05588, -0.028463, -0.001189, 0.03852, -0.045359, 0.208742, -0.001587, 0.034549, -0.082629, 0.0185, 0.027683, 0.003734, 0.083156, 0.072967, 0.031566, 0.028181, 0.072848, -0.093107, -0.026131, -0.095341, 0.115276, 0.042819, 0.191166, -0.288022, 0.045778, -0.005116, 0.137807, 0.165706, -0.03049, -0.025775, 0.001689, -0.128345, -0.042457, 0.056167, -0.066941, -0.01753, -0.279355, 0.081315, -0.053656, -0.057207, 0.071058, -0.030874, 0.068653, 0.100933, -0.045934, 0.05036, 0.079782, 0.090456, 0.029534, -0.063915, -0.068853, 0.192689, 0.053169, 0.00353, -0.37086, 0.047453, 0.074587, -0.061066, -0.102505, 0.219027, 0.209333, 0.07253, 0.087576, -0.033013, -0.135704, -0.152334, -0.059749, -0.057275, -0.077317, -0.13802, -0.0877, -0.133787, -0.003298, 0.163954, 0.221015, -0.053995, 0.04832, -0.127403, -0.23525, -0.055994, 0.019386, -0.032996, 0.132276, -0.05248, 0.125554, -0.02945, -0.043237, -0.006377, 0.091999, -0.051606, -0.111521, -0.093534, -0.041212, 0.123376, -0.109771, 0.056658, 0.104611, 0.034205, -0.035557, -0.132957, 0.115344, -0.010183, -0.016124, -0.029925, -0.151407, -0.112665, 0.094769, -0.054746, -0.080114, 0.061446, 0.115604, -0.174366], [0.069625, 0.218169, 0.005369, -0.126829, -0.066626, 0.225956, -0.127526, -0.074554, 0.006728, 0.054363, -0.043184, -0.115862, 0.034338, -0.111032, 0.016437, 0.135894, 0.201074, -0.097167, -0.00093, 0.000781, 0.028717, -0.045018, -0.200547, 0.092465, -0.057096, -0.162834, 0.087193, -0.134097, -0.168661, -0.260879, -0.150165, 0.173019, 0.058738, -0.068194, 0.148993, -0.274324, 0.037953, 0.068754, -0.12723, -0.051229, -0.02334, 0.024629, 0.039275, 0.18821, -0.073748, 0.084116, -0.190117, 0.056055, -0.005515, 0.002598, -0.102319, 0.0356, 0.213113, -0.152823, 0.162852, -0.154265, 0.070328, -0.143536, 0.064205, -0.136498, -0.046582, -0.052148, 0.329957, 0.036784, -0.151114, 0.323116, 0.04734, -0.322632, -0.099527, 0.257906, -0.444179, 0.078104, -0.011865, 0.038808, 0.098526, 0.001929, -0.222761, 0.115338, -0.040622, -0.135638, 0.085207, 0.1906, -0.148437, -0.097425, 0.16003, -0.010306, 0.045431, -0.089276, 0.073397, -0.174249, -0.234196, 0.081364, 0.087639, 0.055063, -0.201875, 0.079392, 0.028346, 0.174655, -0.080349, 0.261221, 0.121292, 0.000449, -0.129155, 0.046301, 0.075969, -0.150439, 0.226443, 0.27343, -0.024127, -0.081006, -0.128697, 0.08486, 0.044467, -0.006326, -0.052977, 0.115864, -0.017204, 0.091772, 0.135635, 0.023809], [-0.040582, -0.066511, 0.033351, 0.005218, 0.100626, -0.014348, 0.023598, 0.07471, -0.06919, -0.042734, -0.112934, -0.146795, -0.008739, 0.111423, 0.046103, 0.156309, -0.17047, 0.045373, -0.006906, 0.060127, 0.025604, 0.023787, 0.247472, -0.017218, -0.082485, -0.1952, -0.093671, -0.211113, -0.103347, 0.170917, -0.180247, -0.122377, -0.006618, 0.269095, 0.100516, -0.113149, -0.099417, -0.145214, -0.025861, -0.063359, -0.296919, 0.081175, -0.159666, 0.018322, -0.20038, 0.183855, 0.121476, -0.06433, -0.045337, 0.222575, -0.034002, -0.011114, -0.085263, 0.019671, -0.020376, 0.103403, 0.113188, 0.104753, -0.14645, 0.170409, -0.167879, -0.059064, -0.127386, -0.11578, 0.12852, 0.212408, 0.047906, -0.03274, -0.034824, 0.038462, -0.173384, -0.046831, 0.073557, -0.219347, 0.015049, -0.092386, -0.177408, 0.09036, 0.00635, 0.0011, 0.13151, 0.295174, 0.277727, -0.068942, 0.273381, -0.075186, 